{"learner":{"attributes":{"scikit_learn":"{\"_estimator_type\": \"regressor\"}"},"feature_names":[],"feature_types":[],"gradient_booster":{"model":{"gbtree_model_param":{"num_parallel_tree":"1","num_trees":"100"},"iteration_indptr":[0,1,2,3,4,5,6,7,8,9,10,11,12,13,14,15,16,17,18,19,20,21,22,23,24,25,26,27,28,29,30,31,32,33,34,35,36,37,38,39,40,41,42,43,44,45,46,47,48,49,50,51,52,53,54,55,56,57,58,59,60,61,62,63,64,65,66,67,68,69,70,71,72,73,74,75,76,77,78,79,80,81,82,83,84,85,86,87,88,89,90,91,92,93,94,95,96,97,98,99,100],"tree_info":[0,0,0,0,0,0,0,0,0,0,0,0,0,0,0,0,0,0,0,0,0,0,0,0,0,0,0,0,0,0,0,0,0,0,0,0,0,0,0,0,0,0,0,0,0,0,0,0,0,0,0,0,0,0,0,0,0,0,0,0,0,0,0,0,0,0,0,0,0,0,0,0,0,0,0,0,0,0,0,0,0,0,0,0,0,0,0,0,0,0,0,0,0,0,0,0,0,0,0,0],"trees":[{"base_weights":[-2.8351815E-6,-1.0235122E1,3.21941E1,-7.7339864E0,-4.7239925E1,5.5952866E1,2.0148363E1,-1.5747947E1,4.5602933E-1,-3.1877514E1,-6.7196655E1,4.7445858E1,8.8442024E1,6.856285E0,3.4484432E1,-1.1897789E0,-1.9231005E1,1.774391E1,-2.7053213E0,-3.8445786E1,-1.0992048E1,-2.3954313E1,-7.101504E1,6.0569572E1,3.0347754E1,9.239273E1,3.4853035E1,1.65496E1,-5.841774E0,4.4841213E1,2.2717842E1,-9.992418E0,6.467617E0,-1.46373E1,-3.1034395E1,2.2571571E1,1.2559953E1,-1.0209604E1,2.907116E0,-1.7579313E1,-4.0182083E1,-1.8261662E1,-4.8528357E0,-1.4018439E0,1.1559105E-1,-3.8318748E0,-4.957767E1,3.0399418E1,6.950676E1,2.238692E1,4.1110085E1,1.04691536E2,7.14787E1,-9.84409E-1,2.4849458E0,2.6797361E1,9.09009E0,-2.6370065E0,-3.719356E1,3.212434E0,3.816011E1,1.8065321E1,3.497565E1,1.1483866E0,-1.0983054E1,2.4595295E1,3.1992579E0,-2.1125881E1,-1.1467077E1,-6.1921303E1,-2.8264715E1,1.9980272E1,5.710598E1,-1.4301086E1,1.3777406E1,-3.2928178E0,-1.5186893E1,-4.147588E0,9.187574E0,-7.2822685E0,-2.2301086E1,-1.5129966E0,-4.5563828E1,-5.4771566E-1,-1.3150543E0,3.3745474E-1,-6.9923325E0,-5.0940895E-1,-2.5647697E0,4.101187E1,1.5897164E1,1.10886574E-1,3.570409E0,2.6714817E1,1.0275029E1,3.1176517E0,3.6998676E1,3.1176517E0,5.483476E0,-3.4408953E-2,3.725716E0,1.2989136E0,2.8176743E1,4.7019703E1,6.7923446E0,3.4838572E0,-1.1202722E1,6.3745475E-1,-4.7433052E1,2.7341465E1,5.0448666E1,-1.5782269E1,1.9215567E1,4.7055992E1,1.3315399E1,-1.5927566E1,-6.021178E0,1.4838658E-1,2.7853977E1,8.379522E0,-2.2882211E0,-2.0184233E1,-2.2833936E0,-1.4688458E1,-7.029908E0,-2.3214166E0,-3.5389023E0,-1.953954E1,-3.325955E1,9.358696E0,2.3128468E1,7.5155916E0,1.6519701E1,-1.6282269E1,-1.5940896E-1,8.657211E0,1.7046581E1,-2.4011662E1,-2.0140414E0,-1.1999736E1,-2.8119637E1,-1.659177E0,-2.3794176E1,1.4523438E1,6.514605E0,-5.7921195E-1,1.4059106E-1,-1.3516134E0,-8.4408954E-2,-1.8440895E-1,-4.6412437E1,-6.0161346E-1,-4.523962E0,2.2104833E0,1.7967731E1,1.7101656E0,-2.0313631E1,2.842765E1,6.2989135E0,2.1295687E1,2.0716717E0,1.8853035E1,3.899521E1,-2.917572E0,2.541214E-1,3.2733364E1,1.8118696E1,2.5849457E0,5.905911E-1,9.9727955E0,-9.883631E0,-2.2125452E0,5.371971E0,9.149457E-1,-1.3928831E1,-3.5940894E-1,-5.0738724E1,1.0990397E-1,3.1095648E1,2.4795687E1,5.367315E1,-1.359409E0,-2.917572E0,2.2140846E1,8.205223E0,1.2647843E0,5.4528133E1,9.619169E-1,-7.7822685E0,-4.1387224E0,-1.7888351E1,2.4309902E0,-1.0941949E1,9.059105E-2,2.9200106E1,1.653733E-1,1.2109468E1,-1.4594995E1,7.111691E-1,-1.3422387E1,-2.200135E1,-1.1448043E1,-2.0408426E1,-4.3205914E0,-2.5846138E1,-2.5035645E1,-1.4369869E1,-2.7010865E0,-3.3927326E1,7.9096116E-2,1.9405005E1,-2.8136318E0,2.4943867E1,9.059105E-2,9.549457E-1,-1.5940896E-1,-9.792119E-1,1.037208E0,1.177455E1,2.1023066E1,8.0424595E0,1.559105E-2,-2.6251234E1,1.1554348E1,-2.649499E0,-1.49331665E1,-7.2055097E0,-5.9751163E1,-2.312883E1,2.2037354E-1,-1.9140196E1,-8.022116E0,-3.824434E1,1.8434942E1,1.128086E1,-1.0165336E1,7.69808E0,-5.5940896E-1,-2.3479357E0,-6.5322685E0,-2.9543133E0,1.0541214E0,2.1559106E-1,-4.5250904E1,3.4677315E0,1.6905005E1,3.1756258E1,7.874548E-1,-2.625453E-1,-3.0940896E-1,1.3052989E0,1.0041214E0,-3.5387223E0,1.0249456E0,2.6559106E-1,4.2230175E1,2.6361279E1,-1.8440895E-1,-3.4408953E-2,3.4609467E1,1.3519702E1,-1.0940895E-1,1.905599E1,1.944581E1,5.83939E0,1.2733866E0,-1.9278048E1,1.857567E1,2.516809E0,-2.4667873E1,-1.1295969E1,-2.7222826E0,-4.3440896E-1,-3.0250906E1,1.3105979E1,-4.8440894E-1,3.1981121E1,3.8588658E-1,3.3498913E1,1.9924366E0,5.8193535E1,1.559105E-2,-2.3440896E-1,2.4829914E1,1.3403468E1,-1.1123183E0,1.3248733E1,1.3858865E0,2.914669E0,-1.0940895E-1,-4.458786E-1,2.2078808E-1,-6.8293133E0,1.2078806E-1,-1.874883E1,-4.838722E0,7.1153994E0,-1.5344089E0,-9.648759E0,7.593184E-1,1.6710911E0,-3.2783815E-1,4.806439E0,4.515399E0,1.5502854E1,-1.8001207E1,-1.6411343E-1,-6.722887E0,6.326275E0,-1.3733151E1,-3.2509053E0,-5.0012074E0,-2.2680107E1,-8.2865505E0,-1.3037728E1,-3.803227E1,-1.9582027E1,-1.813048E1,-1.9284931E0,3.7078807E-1,-2.858464E1,-1.4887598E1,-2.7147667E1,3.5197017E0,-1.6123974E1,-3.1254527E-1,8.745473E-2,3.7490947E0,-3.4374233E1,-7.4802985E0,5.109904E0,2.2109903E1,8.467731E0,-9.17572E-1,-1.7661344E-1,1.7198696E1,2.8386425E1,-7.7822685E0,4.461278E0,-3.5940894E-1,1.2708512E1,1.2575669E1,2.4084896E1,9.311217E0,-2.2509053E0,-2.7938723E1,-2.3440896E-1,1.1707882E0,4.8202643E0,2.9124818E0,-3.63489E0,-7.85754E0,-1.5953968E1,-2.0920904E1,-4.6182237E0,-7.4587864E-1,-3.7350545E0,-4.70578E0,-2.761695E1,3.4824648E0,-3.7590215E0,-2.9322592E1,-1.4834627E1,2.9568672E-1,-6.671072E-1,6.863683E-1,-5.3270485E1,-1.0940895E-1,1.8891169E1,1.2723205E1,4.4218235E0,-1.8458786E0,-3.706618E0,1.3629616E1,5.2842517E0,-3.7921193E-1,-8.4408954E-2,-1.6083069E0,-3.0940896E-1,-6.09409E-1,-2.784409E0,1.0374547E0,-1.209409E0,1.9059105E-1,1.7748766E1,6.249457E-1,3.398145E1,5.905911E-1,-6.5567627E0,2.5327504E0,3.3272163E1,1.4832729E0,-8.4408954E-2,1.4059106E-1,1.7641779E0,-3.8440895E-1,1.9298914E1,1.0820265E1,2.1200106E1,-3.3440897E-1,2.0758696E1,-1.8101086E1,7.8025446E0,-4.8301086E1,-2.8387222E0,5.5197015E0,1.3022844E0,1.9498913E1,1.0094413E0,4.059105E-2,-2.7954313E1,-7.251308E0,-1.7415337E1,-2.334409E0,6.559105E-2,7.759851E-1,-3.4408953E-2,2.2175192E1,3.5266968E1,3.6559105E-1,1.9108866E0,2.95751E0,6.6559106E-1,2.6843183E0,2.1230484E1,6.774074E-1,1.8448732E1,7.4157615E0,-4.608307E0,-4.5842385E0,1.63449E1,7.078807E-2,-4.9068162E-1,-1.4804153E0,-8.297539E-1,-1.309409E0,2.2161866E-2,-2.2921193E-1,4.6339884E-1,-1.4470106E-1,-5.394598E-1,-1.3440895E-1,2.8275025E-1,9.041214E-1,5.18604E-2,2.0529895E-1,9.090495E-1,-1.2250544E0,-3.950543E-1,-1.1125454E0,-2.02877E-1,-5.141783E-3,6.610977E-1,-7.021099E-1,-3.1411344E-1,-2.5940895E-1,1.559105E-2,3.7078807E-1,-4.8041534E-1,3.8745472E-1,-1.1519655E0,-5.459849E-1,-1.15825824E-1,-7.517777E-1,-3.9834747E-1,-5.5940896E-1,-2.1625452E0,-9.8837006E-1,1.559105E-2,-3.4771568E-1,-1.061478E0,9.343185E-1,-1.3223663E-1,6.0886573E-2,-1.6180338E0,-2.2921193E-1,-8.333937E-1,-1.8440895E-1,-1.3820975E0,-4.3440896E-1,3.849457E-1,2.541214E-1,-8.5276264E-1,-8.4408954E-2,3.6559105E-1,-9.175634E-1,-1.7818927E0,-8.625453E-1,8.5886575E-2,6.2078804E-1,6.2441796E-2,2.1559106E-1,1.1897844E0,1.8745475E-1,5.6559104E-1,-9.408951E-3,-5.940895E-2,4.0576997E-1,1.4010746E0,4.1765174E-1,1.5236553E0,-4.6254525E-1,-8.4408954E-2,4.124418E-1,-1.6411343E-1,1.7672752E-1,7.52492E-1,3.2216188E-1,1.0549457E0,5.580639E-1,1.467123E0,-1.1254527E-1,5.448582E-1,9.059105E-2,-2.5940895E-1,-5.458786E-1,-1.5414656E0,-1.9587861E-1,4.5494565E-1,-8.339369E-2,2.3684011E-1,-4.2811504E-1,-9.6761554E-2,4.121399E-3,-4.372169E-1,-1.2175634E0,-7.331923E-1,-2.2458787E0,-6.589164E-1,1.0649457E0,-3.1650534E-1,2.1559106E-1,-3.0193612E-1,-1.2545268E-2,-1.4525332E0,-1.384409E0,1.954489E-1,1.8500532E-1,-2.5522184E-1,-1.6323483E0,-2.3440896E-1,6.559105E-2,-7.85377E-1,3.249457E-1,-3.7661344E-1,-1.2661342E-1,2.3745473E-1,-1.5823482E0,-3.141466E0,5.830639E-1,1.0096898E0,1.559105E-2,6.475749E-1,-1.458786E-1,3.0107462E-1,-2.589868E-1,-9.771567E-2,-2.625453E-1,7.167365E-1,4.89043E-1,1.01814546E-1,1.4059106E-1,-1.406816E-1,9.666063E-1,3.5412142E-1,6.749457E-1,1.8359349E0,5.6559104E-1,-5.102157E-1,1.7491034E0,1.9059105E-1,6.559105E-2,1.1733866E0,2.0788066E-2,7.449457E-1,1.2182406E0,4.0494567E-1,-8.4408954E-2,1.0882162E0,-1.0641135E0,-1.3440895E-1,-6.750543E-1,4.8153058E-1,-3.0940896E-1,-2.8641136E0,4.3494567E-1,-5.9901494E-1,4.2078805E-1,9.838658E-2,2.1559106E-1,1.1108866E0,-1.134409E0,9.116136E-2,-7.141134E-1,-1.6650543E0,-8.7327254E-1,-1.7506467E-1,-1.1769361E0,-3.0898678E-1,4.749457E-1,1.267245E0,1.7929026E0,2.9059106E-1,6.702503E-1,1.1441098E0,2.749457E-1,-3.7921193E-1,-3.3440897E-1,1.0360976E0,1.1559105E-1,4.4059107E-1,-4.3911344E-1,3.5886575E-2,9.059105E-2,-4.3440896E-1,-1.8440895E-1,9.1608363E-1],"categories":[],"categories_nodes":[],"categories_segments":[],"categories_sizes":[],"default_left":[0,0,0,0,0,0,0,0,0,0,0,0,0,0,0,0,0,0,0,0,0,0,0,0,0,0,0,0,0,0,0,0,0,0,0,0,0,0,0,0,0,0,0,0,0,0,0,0,0,0,0,0,0,0,0,0,0,0,0,0,0,0,0,0,0,0,0,0,0,0,0,0,0,0,0,0,0,0,0,0,0,0,0,0,0,0,0,0,0,0,0,0,0,0,0,0,0,0,0,0,0,0,0,0,0,0,0,0,0,0,0,0,0,0,0,0,0,0,0,0,0,0,0,0,0,0,0,0,0,0,0,0,0,0,0,0,0,0,0,0,0,0,0,0,0,0,0,0,0,0,0,0,0,0,0,0,0,0,0,0,0,0,0,0,0,0,0,0,0,0,0,0,0,0,0,0,0,0,0,0,0,0,0,0,0,0,0,0,0,0,0,0,0,0,0,0,0,0,0,0,0,0,0,0,0,0,0,0,0,0,0,0,0,0,0,0,0,0,0,0,0,0,0,0,0,0,0,0,0,0,0,0,0,0,0,0,0,0,0,0,0,0,0,0,0,0,0,0,0,0,0,0,0,0,0,0,0,0,0,0,0,0,0,0,0,0,0,0,0,0,0,0,0,0,0,0,0,0,0,0,0,0,0,0,0,0,0,0,0,0,0,0,0,0,0,0,0,0,0,0,0,0,0,0,0,0,0,0,0,0,0,0,0,0,0,0,0,0,0,0,0,0,0,0,0,0,0,0,0,0,0,0,0,0,0,0,0,0,0,0,0,0,0,0,0,0,0,0,0,0,0,0,0,0,0,0,0,0,0,0,0,0,0,0,0,0,0,0,0,0,0,0,0,0,0,0,0,0,0,0,0,0,0,0,0,0,0,0,0,0,0,0,0,0,0,0,0,0,0,0,0,0,0,0,0,0,0,0,0,0,0,0,0,0,0,0,0,0,0,0,0,0,0,0,0,0,0,0,0,0,0,0,0,0,0,0,0,0,0,0,0,0,0,0,0,0,0,0,0,0,0,0,0,0,0,0,0,0,0,0,0,0,0,0,0,0,0,0,0,0,0,0,0,0,0,0,0,0,0,0,0,0,0,0,0,0,0,0,0,0,0,0,0,0,0,0,0,0,0,0,0,0,0,0,0,0,0,0,0,0,0,0,0,0,0,0,0,0,0,0,0,0,0,0,0,0,0,0,0,0,0,0,0,0,0,0,0,0,0,0,0,0,0,0,0,0,0,0,0,0,0,0,0,0,0,0,0,0,0,0,0,0,0,0,0,0,0,0,0,0,0,0,0,0,0,0,0,0,0,0,0,0,0,0,0,0,0,0,0,0,0,0,0,0,0,0,0,0,0,0,0,0,0,0,0,0,0,0,0,0,0,0,0,0,0,0,0],"id":0,"left_children":[1,3,5,7,9,11,13,15,17,19,21,23,25,27,29,31,33,35,37,39,41,43,45,47,49,51,53,55,57,59,61,63,65,67,69,71,73,75,77,79,81,83,85,-1,-1,-1,87,89,91,93,95,97,99,-1,-1,101,103,105,107,-1,109,111,113,-1,115,117,119,121,123,125,127,129,131,133,135,137,139,141,143,145,147,-1,149,-1,-1,-1,151,-1,-1,153,155,-1,-1,157,159,-1,161,-1,-1,-1,-1,163,165,167,169,171,173,-1,175,177,179,181,183,185,187,189,191,-1,193,195,197,199,-1,201,203,-1,-1,205,207,209,211,-1,213,215,-1,217,219,221,223,225,227,229,231,233,235,-1,-1,-1,-1,-1,237,-1,239,-1,241,-1,243,245,247,249,251,253,255,257,-1,259,261,-1,-1,263,265,-1,267,-1,269,-1,271,273,275,277,279,-1,281,283,285,-1,287,-1,289,291,293,295,297,-1,299,301,303,305,307,309,311,313,315,317,319,321,323,325,327,329,331,333,335,-1,-1,-1,-1,337,339,341,343,-1,345,347,349,351,353,355,357,359,361,363,365,367,369,371,373,-1,-1,375,377,-1,-1,379,381,383,385,-1,-1,-1,-1,-1,387,-1,-1,389,391,-1,-1,393,395,-1,397,399,401,-1,403,405,407,409,411,-1,-1,413,415,-1,417,-1,419,-1,421,-1,-1,423,425,427,429,-1,-1,-1,-1,-1,431,-1,433,435,437,-1,439,-1,-1,-1,441,443,445,447,-1,449,451,453,455,457,459,461,463,465,467,469,471,-1,473,475,477,479,481,-1,-1,483,485,487,489,491,493,495,-1,497,499,501,503,-1,505,507,509,511,513,515,-1,-1,517,519,521,523,525,527,529,-1,-1,531,533,535,537,539,541,543,-1,545,547,-1,549,551,553,-1,555,557,559,-1,-1,561,-1,-1,-1,-1,-1,-1,563,-1,565,-1,567,-1,569,-1,-1,-1,-1,-1,571,573,575,-1,577,579,581,583,585,587,-1,589,591,-1,593,595,597,-1,-1,-1,-1,599,601,-1,-1,-1,-1,-1,603,605,607,609,611,613,615,-1,-1,-1,-1,-1,-1,-1,-1,-1,-1,-1,-1,-1,-1,-1,-1,-1,-1,-1,-1,-1,-1,-1,-1,-1,-1,-1,-1,-1,-1,-1,-1,-1,-1,-1,-1,-1,-1,-1,-1,-1,-1,-1,-1,-1,-1,-1,-1,-1,-1,-1,-1,-1,-1,-1,-1,-1,-1,-1,-1,-1,-1,-1,-1,-1,-1,-1,-1,-1,-1,-1,-1,-1,-1,-1,-1,-1,-1,-1,-1,-1,-1,-1,-1,-1,-1,-1,-1,-1,-1,-1,-1,-1,-1,-1,-1,-1,-1,-1,-1,-1,-1,-1,-1,-1,-1,-1,-1,-1,-1,-1,-1,-1,-1,-1,-1,-1,-1,-1,-1,-1,-1,-1,-1,-1,-1,-1,-1,-1,-1,-1,-1,-1,-1,-1,-1,-1,-1,-1,-1,-1,-1,-1,-1,-1,-1,-1,-1,-1,-1,-1,-1,-1,-1,-1,-1,-1,-1,-1,-1,-1,-1,-1,-1,-1,-1,-1,-1,-1,-1,-1,-1,-1,-1,-1,-1,-1,-1,-1,-1,-1,-1,-1,-1,-1,-1],"loss_changes":[1.2771825E6,2.71836E5,2.6646206E5,1.8089578E5,5.488247E4,8.258875E4,1.18289484E5,7.061191E4,7.459476E4,1.425582E4,1.1508156E4,5.4483938E4,1.0329594E4,3.9976637E4,3.5418688E4,1.8264057E4,6.0490438E4,4.9970703E3,4.8633066E4,2.2282734E3,1.1163811E3,9.2268164E2,4.9992188E3,3.590575E4,8.589836E3,7.692625E3,5.836755E3,1.3821977E4,1.4068923E4,1.8035062E4,7.466375E3,4.3663438E3,8.512238E3,1.6440234E4,2.5111531E4,8.523816E3,3.598043E3,1.6956852E4,2.9324887E4,2.2655981E2,2.5727344E3,4.1685205E2,4.4434857E2,0E0,0E0,0E0,6.9527734E2,4.5807773E3,1.36596875E4,3.1851602E3,1.7105938E3,5.3834375E2,5.528086E3,0E0,0E0,2.6716484E3,9.093106E3,6.802444E3,7.2527637E3,0E0,1.4574109E4,4.3912344E3,9.316629E3,0E0,2.921787E3,1.4678379E3,3.5440718E3,5.202367E3,7.715461E3,1.4432031E2,1.1988547E4,3.1943008E3,2.3997043E4,5.817273E1,1.5263066E3,5.4625513E3,1.1492336E4,1.5213819E4,4.897293E3,2.0627069E2,4.4198193E2,0E0,1.4634922E3,0E0,0E0,0E0,1.1973248E2,0E0,0E0,6.057715E2,1.1300875E4,0E0,0E0,1.4994531E3,1.673604E3,0E0,7.501836E2,0E0,0E0,0E0,0E0,9.459402E1,2.7525625E3,3.778125E2,5.5613916E3,7.0874937E3,4.5978145E3,0E0,1.0986816E3,6.743914E3,3.2186094E3,5.0761078E2,3.103582E3,2.5229766E3,2.0241208E3,1.3360059E3,2.6468442E3,0E0,6.1316113E2,1.9588501E3,2.2620613E3,2.8624688E3,0E0,5.623453E3,1.1715486E4,0E0,0E0,2.7088477E3,3.6427188E3,2.3291084E3,3.7436172E3,0E0,1.9300464E2,1.1050708E2,0E0,9.6170703E2,1.979207E3,6.61876E2,1.7291738E3,3.1551406E3,7.4585703E3,9.138314E3,7.6700117E3,1.2633086E3,4.7172217E3,0E0,0E0,0E0,0E0,0E0,3.4051562E2,0E0,1.5377335E1,0E0,7.923242E1,0E0,3.7151724E3,1.1507539E3,6.284364E2,1.2191919E3,1.2836355E3,2.483667E1,3.5808984E2,2.6158276E0,0E0,1.2983867E3,5.1753516E2,0E0,0E0,3.293004E3,6.13676E3,0E0,2.7429526E3,0E0,1.1350732E3,0E0,1.08575E3,3.94761E3,2.4043906E3,9.3053076E2,6.8065625E2,0E0,1.8615831E1,1.5468242E3,1.0955782E3,0E0,1.0035156E2,0E0,5.8907166E0,2.6032275E2,9.537969E2,8.517328E2,7.2532227E2,0E0,5.573613E2,6.8667E2,1.0638613E3,4.0331787E2,2.1296816E3,1.3552832E2,2.2059062E3,9.172207E2,9.010156E2,6.7040947E3,2.8535215E3,6.889121E2,1.8768018E3,8.992011E1,3.1428438E3,5.7064166E2,1.6779004E2,4.9343567E0,1.4581992E3,0E0,0E0,0E0,0E0,4.2729938E2,6.049541E2,7.5756055E2,2.821543E2,0E0,2.692793E2,6.060115E2,1.0464437E3,9.0750586E2,3.0970908E3,3.5774531E3,4.0042812E3,3.2843403E3,7.487168E2,8.0046204E2,1.0566178E4,5.211875E2,5.966836E2,2.6277231E3,3.077874E3,0E0,0E0,7.579788E0,2.4869942E1,0E0,0E0,3.565166E2,2.4136104E3,6.491504E1,9.893594E2,0E0,0E0,0E0,0E0,0E0,5.40733E2,0E0,0E0,3.5227734E2,9.7688525E2,0E0,0E0,8.4390234E2,8.8376245E2,0E0,1.9441016E2,1.0309229E3,3.0551643E3,0E0,6.542554E3,1.1241035E3,1.5674102E3,7.7633057E2,9.1324854E2,0E0,0E0,1.6176624E3,2.437472E2,0E0,1.0545312E3,0E0,3.3841943E2,0E0,6.724531E2,0E0,0E0,5.0922188E3,1.3358359E3,3.0250073E2,9.0313696E2,0E0,0E0,0E0,0E0,0E0,2.1074115E2,0E0,6.7808203E2,1.1392773E3,4.2025244E2,0E0,2.692068E2,0E0,0E0,0E0,9.78775E1,6.8907556E2,8.41021E2,3.9726074E2,0E0,8.202424E2,1.2870189E3,3.8429688E1,2.2323713E1,5.861088E2,2.2880547E3,1.0908232E3,1.2377031E3,7.6458984E1,4.1182422E2,8.914385E2,2.633326E3,0E0,3.0778496E3,1.2536157E2,3.7347266E2,3.7300546E2,1.1333838E3,0E0,0E0,7.045822E1,2.9297031E3,5.6885443E2,2.3837045E2,1.6743018E2,1.127182E1,3.6854625E-1,0E0,2.2302607E3,1.7938203E3,2.0182846E1,3.2036618E2,0E0,5.482246E2,5.435415E2,1.642957E3,3.545929E2,4.520007E1,1.5543066E2,0E0,0E0,2.9734857E2,2.5022539E2,1.3317915E3,1.4154382E2,9.862754E2,2.009206E3,3.5510916E3,0E0,0E0,1.5825725E2,1.5621191E3,1.9561945E3,1.1629479E3,4.2020312E2,3.1658887E2,4.3742026E2,0E0,9.048463E1,6.986836E2,0E0,2.3540625E2,1.4896777E2,1.70196E2,0E0,2.6016068E1,9.139844E2,2.287642E3,0E0,0E0,4.520526E1,0E0,0E0,0E0,0E0,0E0,0E0,4.8856934E1,0E0,1.1302422E3,0E0,7.020184E2,0E0,6.7264453E2,0E0,0E0,0E0,0E0,0E0,3.4413916E2,2.9085974E2,5.4897656E2,0E0,6.0107227E2,1.879458E2,2.3888022E3,1.5366455E3,1.1589373E3,4.5160355E1,0E0,1.1065588E2,1.1598835E3,0E0,1.0919531E2,9.730342E2,9.5533545E2,0E0,0E0,0E0,0E0,4.423125E2,5.054297E2,0E0,0E0,0E0,0E0,0E0,4.041621E2,3.205401E2,9.9571826E2,1.0048523E0,1.6191808E2,9.4488556E1,5.823843E2,0E0,0E0,0E0,0E0,0E0,0E0,0E0,0E0,0E0,0E0,0E0,0E0,0E0,0E0,0E0,0E0,0E0,0E0,0E0,0E0,0E0,0E0,0E0,0E0,0E0,0E0,0E0,0E0,0E0,0E0,0E0,0E0,0E0,0E0,0E0,0E0,0E0,0E0,0E0,0E0,0E0,0E0,0E0,0E0,0E0,0E0,0E0,0E0,0E0,0E0,0E0,0E0,0E0,0E0,0E0,0E0,0E0,0E0,0E0,0E0,0E0,0E0,0E0,0E0,0E0,0E0,0E0,0E0,0E0,0E0,0E0,0E0,0E0,0E0,0E0,0E0,0E0,0E0,0E0,0E0,0E0,0E0,0E0,0E0,0E0,0E0,0E0,0E0,0E0,0E0,0E0,0E0,0E0,0E0,0E0,0E0,0E0,0E0,0E0,0E0,0E0,0E0,0E0,0E0,0E0,0E0,0E0,0E0,0E0,0E0,0E0,0E0,0E0,0E0,0E0,0E0,0E0,0E0,0E0,0E0,0E0,0E0,0E0,0E0,0E0,0E0,0E0,0E0,0E0,0E0,0E0,0E0,0E0,0E0,0E0,0E0,0E0,0E0,0E0,0E0,0E0,0E0,0E0,0E0,0E0,0E0,0E0,0E0,0E0,0E0,0E0,0E0,0E0,0E0,0E0,0E0,0E0,0E0,0E0,0E0,0E0,0E0,0E0,0E0,0E0,0E0,0E0,0E0,0E0,0E0,0E0,0E0,0E0,0E0,0E0,0E0,0E0,0E0,0E0,0E0,0E0,0E0,0E0,0E0,0E0,0E0],"parents":[2147483647,0,0,1,1,2,2,3,3,4,4,5,5,6,6,7,7,8,8,9,9,10,10,11,11,12,12,13,13,14,14,15,15,16,16,17,17,18,18,19,19,20,20,21,21,22,22,23,23,24,24,25,25,26,26,27,27,28,28,29,29,30,30,31,31,32,32,33,33,34,34,35,35,36,36,37,37,38,38,39,39,40,40,41,41,42,42,46,46,47,47,48,48,49,49,50,50,51,51,52,52,55,55,56,56,57,57,58,58,60,60,61,61,62,62,64,64,65,65,66,66,67,67,68,68,69,69,70,70,71,71,72,72,73,73,74,74,75,75,76,76,77,77,78,78,79,79,80,80,82,82,86,86,89,89,90,90,93,93,94,94,96,96,101,101,102,102,103,103,104,104,105,105,106,106,108,108,109,109,110,110,111,111,112,112,113,113,114,114,115,115,116,116,118,118,119,119,120,120,121,121,123,123,124,124,127,127,128,128,129,129,130,130,132,132,133,133,135,135,136,136,137,137,138,138,139,139,140,140,141,141,142,142,143,143,144,144,150,150,152,152,154,154,156,156,157,157,158,158,159,159,160,160,161,161,162,162,163,163,165,165,166,166,169,169,170,170,172,172,174,174,176,176,177,177,178,178,179,179,180,180,182,182,183,183,184,184,186,186,188,188,189,189,190,190,191,191,192,192,194,194,195,195,196,196,197,197,198,198,199,199,200,200,201,201,202,202,203,203,204,204,205,205,206,206,207,207,208,208,209,209,210,210,211,211,212,212,217,217,218,218,219,219,220,220,222,222,223,223,224,224,225,225,226,226,227,227,228,228,229,229,230,230,231,231,232,232,233,233,234,234,235,235,236,236,239,239,240,240,243,243,244,244,245,245,246,246,252,252,255,255,256,256,259,259,260,260,262,262,263,263,264,264,266,266,267,267,268,268,269,269,270,270,273,273,274,274,276,276,278,278,280,280,283,283,284,284,285,285,286,286,292,292,294,294,295,295,296,296,298,298,302,302,303,303,304,304,305,305,307,307,308,308,309,309,310,310,311,311,312,312,313,313,314,314,315,315,316,316,317,317,318,318,320,320,321,321,322,322,323,323,324,324,327,327,328,328,329,329,330,330,331,331,332,332,333,333,335,335,336,336,337,337,338,338,340,340,341,341,342,342,343,343,344,344,345,345,348,348,349,349,350,350,351,351,352,352,353,353,354,354,357,357,358,358,359,359,360,360,361,361,362,362,363,363,365,365,366,366,368,368,369,369,370,370,372,372,373,373,374,374,377,377,384,384,386,386,388,388,390,390,396,396,397,397,398,398,400,400,401,401,402,402,403,403,404,404,405,405,407,407,408,408,410,410,411,411,412,412,417,417,418,418,424,424,425,425,426,426,427,427,428,428,429,429,430,430],"right_children":[2,4,6,8,10,12,14,16,18,20,22,24,26,28,30,32,34,36,38,40,42,44,46,48,50,52,54,56,58,60,62,64,66,68,70,72,74,76,78,80,82,84,86,-1,-1,-1,88,90,92,94,96,98,100,-1,-1,102,104,106,108,-1,110,112,114,-1,116,118,120,122,124,126,128,130,132,134,136,138,140,142,144,146,148,-1,150,-1,-1,-1,152,-1,-1,154,156,-1,-1,158,160,-1,162,-1,-1,-1,-1,164,166,168,170,172,174,-1,176,178,180,182,184,186,188,190,192,-1,194,196,198,200,-1,202,204,-1,-1,206,208,210,212,-1,214,216,-1,218,220,222,224,226,228,230,232,234,236,-1,-1,-1,-1,-1,238,-1,240,-1,242,-1,244,246,248,250,252,254,256,258,-1,260,262,-1,-1,264,266,-1,268,-1,270,-1,272,274,276,278,280,-1,282,284,286,-1,288,-1,290,292,294,296,298,-1,300,302,304,306,308,310,312,314,316,318,320,322,324,326,328,330,332,334,336,-1,-1,-1,-1,338,340,342,344,-1,346,348,350,352,354,356,358,360,362,364,366,368,370,372,374,-1,-1,376,378,-1,-1,380,382,384,386,-1,-1,-1,-1,-1,388,-1,-1,390,392,-1,-1,394,396,-1,398,400,402,-1,404,406,408,410,412,-1,-1,414,416,-1,418,-1,420,-1,422,-1,-1,424,426,428,430,-1,-1,-1,-1,-1,432,-1,434,436,438,-1,440,-1,-1,-1,442,444,446,448,-1,450,452,454,456,458,460,462,464,466,468,470,472,-1,474,476,478,480,482,-1,-1,484,486,488,490,492,494,496,-1,498,500,502,504,-1,506,508,510,512,514,516,-1,-1,518,520,522,524,526,528,530,-1,-1,532,534,536,538,540,542,544,-1,546,548,-1,550,552,554,-1,556,558,560,-1,-1,562,-1,-1,-1,-1,-1,-1,564,-1,566,-1,568,-1,570,-1,-1,-1,-1,-1,572,574,576,-1,578,580,582,584,586,588,-1,590,592,-1,594,596,598,-1,-1,-1,-1,600,602,-1,-1,-1,-1,-1,604,606,608,610,612,614,616,-1,-1,-1,-1,-1,-1,-1,-1,-1,-1,-1,-1,-1,-1,-1,-1,-1,-1,-1,-1,-1,-1,-1,-1,-1,-1,-1,-1,-1,-1,-1,-1,-1,-1,-1,-1,-1,-1,-1,-1,-1,-1,-1,-1,-1,-1,-1,-1,-1,-1,-1,-1,-1,-1,-1,-1,-1,-1,-1,-1,-1,-1,-1,-1,-1,-1,-1,-1,-1,-1,-1,-1,-1,-1,-1,-1,-1,-1,-1,-1,-1,-1,-1,-1,-1,-1,-1,-1,-1,-1,-1,-1,-1,-1,-1,-1,-1,-1,-1,-1,-1,-1,-1,-1,-1,-1,-1,-1,-1,-1,-1,-1,-1,-1,-1,-1,-1,-1,-1,-1,-1,-1,-1,-1,-1,-1,-1,-1,-1,-1,-1,-1,-1,-1,-1,-1,-1,-1,-1,-1,-1,-1,-1,-1,-1,-1,-1,-1,-1,-1,-1,-1,-1,-1,-1,-1,-1,-1,-1,-1,-1,-1,-1,-1,-1,-1,-1,-1,-1,-1,-1,-1,-1,-1,-1,-1,-1,-1,-1,-1,-1,-1,-1,-1,-1,-1],"split_conditions":[2.7740797E-1,1.341608E0,-6.0366863E-1,-4.334254E-1,2.00001E0,2.5622296E0,1.369045E0,-9.264084E-1,-8.047764E-1,1.5047345E-1,2.00001E0,2.00001E0,2.00001E0,5.554432E-1,2.2009425E-1,-8.650028E-1,2.00001E0,-1.1174977E0,2.00001E0,2.00001E0,2.00001E0,1.5047345E-1,-4.334254E-1,2.00001E0,1.369045E0,-1.2599373E0,-1.8977596E0,2.00001E0,2.00001E0,2.00001E0,2.5622296E0,2.00001E0,-1.8214977E0,-8.650028E-1,2.00001E0,-1.1322712E0,2.00001E0,7.811366E-2,1.5047345E-1,1.6848111E0,2.00001E0,2.4281964E0,2.00001E0,-1.4018439E0,1.1559105E-1,-3.8318748E0,1.4389564E0,2.00001E0,2.00001E0,2.00001E0,-1.8711802E0,2.00001E0,2.00001E0,-9.84409E-1,2.4849458E0,2.00001E0,2.00001E0,1.237619E0,3.027949E-1,3.212434E0,2.409908E0,2.00001E0,8.866602E-1,1.1483866E0,2.00001E0,2.00001E0,-1.3214257E0,-9.9193734E-1,2.00001E0,2.00001E0,-1.9476321E-1,2.00001E0,2.00001E0,-9.264084E-1,-1.7955634E-1,2.00001E0,2.00001E0,2.00001E0,2.00001E0,1.3836988E0,1.8927072E0,-1.5129966E0,2.00001E0,-5.4771566E-1,-1.3150543E0,3.3745474E-1,2.00001E0,-5.0940895E-1,-2.5647697E0,2.00001E0,3.027949E-1,1.10886574E-1,3.570409E0,1.0390152E0,3.027949E-1,3.1176517E0,2.00001E0,3.1176517E0,5.483476E0,-3.4408953E-2,3.725716E0,3.8891652E-1,2.00001E0,1.0390152E0,2.00001E0,5.8995867E-1,2.00001E0,6.3745475E-1,6.243593E-1,2.00001E0,2.00001E0,2.00001E0,1.1645217E0,2.00001E0,1.9711663E0,-1.8711802E0,-1.4624552E0,1.4838658E-1,2.00001E0,2.00001E0,2.00001E0,2.00001E0,-2.2833936E0,3.8237417E-1,-4.8419923E-1,-2.3214166E0,-3.5389023E0,-8.650028E-1,2.00001E0,2.00001E0,2.00001E0,7.5155916E0,2.00001E0,2.00001E0,-1.5940896E-1,2.00001E0,2.00001E0,2.00001E0,2.00001E0,2.00001E0,2.00001E0,9.550024E-1,2.00001E0,-8.019149E-3,2.00001E0,-5.7921195E-1,1.4059106E-1,-1.3516134E0,-8.4408954E-2,-1.8440895E-1,2.00001E0,-6.0161346E-1,2.00001E0,2.2104833E0,-8.4421086E-1,1.7101656E0,-1.0126232E0,2.00001E0,-1.3419217E0,2.00001E0,2.00001E0,-9.99768E-1,1.5975271E0,-5.00647E-1,2.541214E-1,4.936106E-1,2.00001E0,2.5849457E0,5.905911E-1,4.0434253E-1,-5.4980487E-1,-2.2125452E0,4.0434253E-1,9.149457E-1,1.341608E0,-3.5940894E-1,1.115176E0,2.00001E0,2.00001E0,2.5622296E0,2.00001E0,-1.359409E0,2.7523696E-1,1.6736878E0,2.00001E0,1.2647843E0,2.00001E0,9.619169E-1,2.6383903E0,2.00001E0,2.00001E0,2.00001E0,-1.4416475E0,9.059105E-2,2.00001E0,2.00001E0,2.00001E0,-5.6035995E-1,2.00001E0,-1.0680981E0,-8.7424994E-1,-2.6271188E-1,3.8891652E-1,2.00001E0,2.00001E0,2.00001E0,2.00001E0,2.00001E0,2.00001E0,-1.7955634E-1,-1.2172891E0,2.00001E0,2.00001E0,9.059105E-2,9.549457E-1,-1.5940896E-1,-9.792119E-1,2.00001E0,2.00001E0,2.00001E0,-8.3040464E-1,1.559105E-2,-7.103236E-2,2.00001E0,2.00001E0,2.00001E0,2.00001E0,-1.7955634E-1,3.154093E-1,2.2957164E-1,2.00001E0,2.00001E0,2.00001E0,2.00001E0,7.643231E-1,2.00001E0,2.00001E0,-5.5940896E-1,-2.3479357E0,1.4853103E0,1.6848111E0,1.0541214E0,2.1559106E-1,-1.4057876E0,-8.1584424E-1,2.00001E0,2.00001E0,7.874548E-1,-2.625453E-1,-3.0940896E-1,1.3052989E0,1.0041214E0,2.00001E0,1.0249456E0,2.6559106E-1,2.00001E0,-7.1969295E-1,-1.8440895E-1,-3.4408953E-2,2.00001E0,2.00001E0,-1.0940895E-1,2.00001E0,2.00001E0,2.00001E0,1.2733866E0,-3.572563E-1,2.00001E0,2.00001E0,6.582116E-1,7.851461E-1,-2.7222826E0,-4.3440896E-1,-2.2727823E-1,2.00001E0,-4.8440894E-1,2.00001E0,3.8588658E-1,2.00001E0,1.9924366E0,4.339313E0,1.559105E-2,-2.3440896E-1,2.00001E0,3.3628255E-1,2.00001E0,2.00001E0,1.3858865E0,2.914669E0,-1.0940895E-1,-4.458786E-1,2.2078808E-1,-1.1188719E0,1.2078806E-1,-1.6590538E0,2.00001E0,2.00001E0,-1.5344089E0,-1.3419217E0,7.593184E-1,1.6710911E0,-3.2783815E-1,2.00001E0,2.00001E0,2.00001E0,-1.1322712E0,-1.6411343E-1,2.00001E0,-1.1322712E0,9.550024E-1,-5.8233625E-1,2.00001E0,-1.6012231E0,-7.1268135E-1,2.00001E0,2.00001E0,-5.6035995E-1,-6.163106E-1,2.00001E0,3.7078807E-1,2.00001E0,-7.5793046E-1,2.00001E0,-8.7424994E-1,2.00001E0,-3.1254527E-1,8.745473E-2,3.0688292E-1,2.00001E0,-1.3047992E0,-1.5379956E0,2.00001E0,-1.1590801E0,-1.5167124E0,-1.7661344E-1,2.00001E0,2.00001E0,-1.0447775E0,-8.9417213E-1,-3.5940894E-1,2.00001E0,2.00001E0,2.00001E0,2.00001E0,2.00001E0,2.00001E0,-2.3440896E-1,1.1707882E0,-5.00647E-1,2.00001E0,-5.701042E-1,2.00001E0,2.00001E0,-1.7955634E-1,2.00001E0,-7.4587864E-1,-3.7350545E0,2.00001E0,2.00001E0,2.00001E0,2.00001E0,2.00001E0,2.00001E0,-1.7955634E-1,-6.671072E-1,2.3629436E-1,2.00001E0,-1.0940895E-1,2.00001E0,4.3113045E-3,2.00001E0,-1.8458786E0,-9.8808676E-2,2.00001E0,-4.7158502E-2,-3.7921193E-1,-8.4408954E-2,2.00001E0,-3.0940896E-1,-6.09409E-1,-2.784409E0,1.0374547E0,-1.209409E0,1.9059105E-1,3.027949E-1,6.249457E-1,2.00001E0,5.905911E-1,2.00001E0,2.5327504E0,-6.967209E-1,1.4832729E0,-8.4408954E-2,1.4059106E-1,1.7641779E0,-3.8440895E-1,2.00001E0,-7.87061E-2,2.0674719E-1,-3.3440897E-1,2.00001E0,-4.7158502E-2,2.00001E0,-5.143876E-1,3.027949E-1,7.8499955E-1,1.3022844E0,6.352469E-1,2.00001E0,4.059105E-2,2.00001E0,5.3127706E-1,1.2928842E0,-2.334409E0,6.559105E-2,7.759851E-1,-3.4408953E-2,2.00001E0,2.3083606E0,3.6559105E-1,1.9108866E0,2.95751E0,6.6559106E-1,2.6843183E0,2.00001E0,2.8733784E-1,2.00001E0,1.341608E0,2.00001E0,1.5499305E0,2.00001E0,7.078807E-2,-4.9068162E-1,-1.4804153E0,-8.297539E-1,-1.309409E0,2.2161866E-2,-2.2921193E-1,4.6339884E-1,-1.4470106E-1,-5.394598E-1,-1.3440895E-1,2.8275025E-1,9.041214E-1,5.18604E-2,2.0529895E-1,9.090495E-1,-1.2250544E0,-3.950543E-1,-1.1125454E0,-2.02877E-1,-5.141783E-3,6.610977E-1,-7.021099E-1,-3.1411344E-1,-2.5940895E-1,1.559105E-2,3.7078807E-1,-4.8041534E-1,3.8745472E-1,-1.1519655E0,-5.459849E-1,-1.15825824E-1,-7.517777E-1,-3.9834747E-1,-5.5940896E-1,-2.1625452E0,-9.8837006E-1,1.559105E-2,-3.4771568E-1,-1.061478E0,9.343185E-1,-1.3223663E-1,6.0886573E-2,-1.6180338E0,-2.2921193E-1,-8.333937E-1,-1.8440895E-1,-1.3820975E0,-4.3440896E-1,3.849457E-1,2.541214E-1,-8.5276264E-1,-8.4408954E-2,3.6559105E-1,-9.175634E-1,-1.7818927E0,-8.625453E-1,8.5886575E-2,6.2078804E-1,6.2441796E-2,2.1559106E-1,1.1897844E0,1.8745475E-1,5.6559104E-1,-9.408951E-3,-5.940895E-2,4.0576997E-1,1.4010746E0,4.1765174E-1,1.5236553E0,-4.6254525E-1,-8.4408954E-2,4.124418E-1,-1.6411343E-1,1.7672752E-1,7.52492E-1,3.2216188E-1,1.0549457E0,5.580639E-1,1.467123E0,-1.1254527E-1,5.448582E-1,9.059105E-2,-2.5940895E-1,-5.458786E-1,-1.5414656E0,-1.9587861E-1,4.5494565E-1,-8.339369E-2,2.3684011E-1,-4.2811504E-1,-9.6761554E-2,4.121399E-3,-4.372169E-1,-1.2175634E0,-7.331923E-1,-2.2458787E0,-6.589164E-1,1.0649457E0,-3.1650534E-1,2.1559106E-1,-3.0193612E-1,-1.2545268E-2,-1.4525332E0,-1.384409E0,1.954489E-1,1.8500532E-1,-2.5522184E-1,-1.6323483E0,-2.3440896E-1,6.559105E-2,-7.85377E-1,3.249457E-1,-3.7661344E-1,-1.2661342E-1,2.3745473E-1,-1.5823482E0,-3.141466E0,5.830639E-1,1.0096898E0,1.559105E-2,6.475749E-1,-1.458786E-1,3.0107462E-1,-2.589868E-1,-9.771567E-2,-2.625453E-1,7.167365E-1,4.89043E-1,1.01814546E-1,1.4059106E-1,-1.406816E-1,9.666063E-1,3.5412142E-1,6.749457E-1,1.8359349E0,5.6559104E-1,-5.102157E-1,1.7491034E0,1.9059105E-1,6.559105E-2,1.1733866E0,2.0788066E-2,7.449457E-1,1.2182406E0,4.0494567E-1,-8.4408954E-2,1.0882162E0,-1.0641135E0,-1.3440895E-1,-6.750543E-1,4.8153058E-1,-3.0940896E-1,-2.8641136E0,4.3494567E-1,-5.9901494E-1,4.2078805E-1,9.838658E-2,2.1559106E-1,1.1108866E0,-1.134409E0,9.116136E-2,-7.141134E-1,-1.6650543E0,-8.7327254E-1,-1.7506467E-1,-1.1769361E0,-3.0898678E-1,4.749457E-1,1.267245E0,1.7929026E0,2.9059106E-1,6.702503E-1,1.1441098E0,2.749457E-1,-3.7921193E-1,-3.3440897E-1,1.0360976E0,1.1559105E-1,4.4059107E-1,-4.3911344E-1,3.5886575E-2,9.059105E-2,-4.3440896E-1,-1.8440895E-1,9.1608363E-1],"split_indices":[1,0,0,1,48,1,1,0,0,1,46,46,48,0,0,1,48,0,4,46,4,1,1,3,1,0,0,50,48,16,1,21,0,1,31,0,20,0,1,0,22,0,27,0,0,0,0,50,17,48,0,41,3,0,0,17,16,0,1,0,1,31,0,0,43,4,0,1,20,32,0,42,33,0,1,31,48,48,50,0,0,0,14,0,0,0,49,0,0,48,1,0,0,1,1,0,19,0,0,0,0,0,46,1,48,0,26,0,0,19,31,13,0,2,0,0,0,0,44,4,4,44,0,0,1,0,0,1,14,4,17,0,17,48,0,4,48,40,41,42,33,0,46,0,17,0,0,0,0,0,3,0,44,0,0,0,0,22,0,2,39,0,1,0,0,0,19,0,0,1,0,0,1,0,0,0,1,39,22,1,2,0,0,1,42,0,39,0,1,32,49,32,0,0,32,33,46,1,20,1,0,0,0,4,40,22,3,49,2,1,0,48,44,0,0,0,0,36,17,42,0,0,0,40,50,40,31,1,0,0,42,50,22,20,0,33,44,0,0,0,0,0,0,0,0,33,36,0,0,0,0,0,33,0,0,49,0,0,0,26,33,0,33,26,46,0,0,49,34,1,1,0,0,0,48,0,42,0,12,0,1,0,0,16,0,49,3,0,0,0,0,0,1,0,0,26,44,0,0,0,0,0,49,50,26,0,0,31,0,0,0,17,1,1,42,32,1,0,27,0,2,0,17,0,2,0,0,0,50,0,0,33,0,0,0,4,20,0,0,0,33,4,46,31,3,49,0,0,0,36,0,50,49,1,41,0,0,41,49,31,3,32,34,1,0,0,20,0,39,0,33,0,0,31,0,0,0,36,0,0,0,0,0,0,1,0,40,0,20,0,0,0,0,0,0,0,40,0,0,0,18,0,39,0,1,0,0,0,3,0,36,1,1,0,0,0,0,33,1,0,0,0,0,0,36,0,3,0,33,0,36,0,0,0,0,0,0,0,0,0,0,0,0,0,0,0,0,0,0,0,0,0,0,0,0,0,0,0,0,0,0,0,0,0,0,0,0,0,0,0,0,0,0,0,0,0,0,0,0,0,0,0,0,0,0,0,0,0,0,0,0,0,0,0,0,0,0,0,0,0,0,0,0,0,0,0,0,0,0,0,0,0,0,0,0,0,0,0,0,0,0,0,0,0,0,0,0,0,0,0,0,0,0,0,0,0,0,0,0,0,0,0,0,0,0,0,0,0,0,0,0,0,0,0,0,0,0,0,0,0,0,0,0,0,0,0,0,0,0,0,0,0,0,0,0,0,0,0,0,0,0,0,0,0,0,0,0,0,0,0,0,0,0,0,0,0,0,0,0,0,0,0,0,0,0,0,0,0,0,0,0,0,0,0,0,0,0],"split_type":[0,0,0,0,0,0,0,0,0,0,0,0,0,0,0,0,0,0,0,0,0,0,0,0,0,0,0,0,0,0,0,0,0,0,0,0,0,0,0,0,0,0,0,0,0,0,0,0,0,0,0,0,0,0,0,0,0,0,0,0,0,0,0,0,0,0,0,0,0,0,0,0,0,0,0,0,0,0,0,0,0,0,0,0,0,0,0,0,0,0,0,0,0,0,0,0,0,0,0,0,0,0,0,0,0,0,0,0,0,0,0,0,0,0,0,0,0,0,0,0,0,0,0,0,0,0,0,0,0,0,0,0,0,0,0,0,0,0,0,0,0,0,0,0,0,0,0,0,0,0,0,0,0,0,0,0,0,0,0,0,0,0,0,0,0,0,0,0,0,0,0,0,0,0,0,0,0,0,0,0,0,0,0,0,0,0,0,0,0,0,0,0,0,0,0,0,0,0,0,0,0,0,0,0,0,0,0,0,0,0,0,0,0,0,0,0,0,0,0,0,0,0,0,0,0,0,0,0,0,0,0,0,0,0,0,0,0,0,0,0,0,0,0,0,0,0,0,0,0,0,0,0,0,0,0,0,0,0,0,0,0,0,0,0,0,0,0,0,0,0,0,0,0,0,0,0,0,0,0,0,0,0,0,0,0,0,0,0,0,0,0,0,0,0,0,0,0,0,0,0,0,0,0,0,0,0,0,0,0,0,0,0,0,0,0,0,0,0,0,0,0,0,0,0,0,0,0,0,0,0,0,0,0,0,0,0,0,0,0,0,0,0,0,0,0,0,0,0,0,0,0,0,0,0,0,0,0,0,0,0,0,0,0,0,0,0,0,0,0,0,0,0,0,0,0,0,0,0,0,0,0,0,0,0,0,0,0,0,0,0,0,0,0,0,0,0,0,0,0,0,0,0,0,0,0,0,0,0,0,0,0,0,0,0,0,0,0,0,0,0,0,0,0,0,0,0,0,0,0,0,0,0,0,0,0,0,0,0,0,0,0,0,0,0,0,0,0,0,0,0,0,0,0,0,0,0,0,0,0,0,0,0,0,0,0,0,0,0,0,0,0,0,0,0,0,0,0,0,0,0,0,0,0,0,0,0,0,0,0,0,0,0,0,0,0,0,0,0,0,0,0,0,0,0,0,0,0,0,0,0,0,0,0,0,0,0,0,0,0,0,0,0,0,0,0,0,0,0,0,0,0,0,0,0,0,0,0,0,0,0,0,0,0,0,0,0,0,0,0,0,0,0,0,0,0,0,0,0,0,0,0,0,0,0,0,0,0,0,0,0,0,0,0,0,0,0,0,0,0,0,0,0,0,0,0,0,0,0,0,0,0,0,0,0,0,0,0,0,0,0,0,0,0,0,0,0,0,0,0,0,0,0,0,0,0,0,0],"sum_hessian":[3.874E3,2.94E3,9.34E2,2.755E3,1.85E2,3.13E2,6.21E2,1.392E3,1.363E3,1.06E2,7.9E1,2.5E2,6.3E1,3.23E2,2.98E2,2.69E2,1.123E3,2.1E2,1.153E3,8E1,2.6E1,7E0,7.2E1,1.4E2,1.1E2,5.8E1,5E0,1.83E2,1.4E2,1.57E2,1.41E2,1.25E2,1.44E2,8.1E2,3.13E2,1.07E2,1.03E2,4.93E2,6.6E2,7E0,7.3E1,1.1E1,1.5E1,6E0,1E0,5.5E1,1.7E1,3.3E1,1.07E2,6.5E1,4.5E1,3.4E1,2.4E1,1E0,4E0,7.6E1,1.07E2,1.28E2,1.2E1,3.8E1,1.19E2,1.04E2,3.7E1,3E0,1.22E2,2.1E1,1.23E2,2.64E2,5.46E2,2.4E1,2.89E2,1.01E2,6E0,4E0,9.9E1,2.07E2,2.86E2,3.11E2,3.49E2,3E0,4E0,2.8E1,4.5E1,7E0,4E0,2E0,1.3E1,1E0,1.6E1,1.8E1,1.5E1,3E0,1.04E2,4.7E1,1.8E1,5E0,4E1,5E0,2.9E1,1E0,2.3E1,4E0,7.2E1,5E0,1.02E2,7.5E1,5.3E1,2E0,1E1,6.5E1,5.4E1,3E0,1.01E2,2.3E1,1.4E1,6E1,6.2E1,3E0,1.8E1,6.3E1,6E1,2.56E2,8E0,3.15E2,2.31E2,1.1E1,1.3E1,1.07E2,1.82E2,2.4E1,7.7E1,1E0,5E0,3E0,1E0,4E1,5.9E1,1.1E1,1.96E2,2.31E2,5.5E1,2.77E2,3.4E1,1.15E2,2.34E2,2E0,1E0,3E0,1E0,1E0,4.4E1,3E0,1E1,1.5E1,3E0,1E1,5E0,4.3E1,4E0,7E0,1.1E1,5E0,3.5E1,2E0,2E0,4.8E1,2.4E1,4E0,1E0,8.6E1,1.6E1,2E0,7.3E1,4E0,4.9E1,1E0,9E0,8E0,5.7E1,7E0,4.7E1,1E0,2E0,7.9E1,2.2E1,7E0,1.6E1,1.1E1,3E0,9E0,5.1E1,2.3E1,3.9E1,1E0,1.7E1,2E1,4.3E1,1.1E1,4.9E1,5.6E1,2E2,2.03E2,1.12E2,2.03E2,2.8E1,5E1,5.7E1,4E0,1.78E2,1.3E1,1.1E1,5E0,7.2E1,1E0,4E0,1E0,2E0,1.2E1,2.8E1,4E1,1.9E1,1E0,1E1,8E0,1.88E2,1.42E2,8.9E1,6E0,4.9E1,2.51E2,2.6E1,1.7E1,1.7E1,5E1,6.5E1,1.5E1,2.19E2,1E0,4.3E1,3E0,7E0,2E0,1E0,2E0,3E0,1.1E1,3.2E1,2E0,2E0,1E0,6E0,2E0,9E0,4E0,1E0,2.6E1,9E0,1E0,1E0,4.3E1,5E0,1E0,2.3E1,2.5E1,6.1E1,3E0,1.3E1,1.2E1,6.1E1,8E0,4.1E1,8E0,1E0,2E0,6E0,1E0,5.6E1,3E0,4E0,1.4E1,3.3E1,1E0,1E0,5.9E1,2E1,8E0,1.4E1,3E0,1.3E1,1E0,2E0,2E0,7E0,2E0,4.9E1,9E0,1.4E1,1E0,3.8E1,5E0,1.2E1,8E0,1.2E1,1.4E1,2.9E1,8E0,3E0,2.1E1,2.8E1,5.4E1,2E0,8E0,1.92E2,7E1,1.33E2,3E0,1.09E2,2.9E1,1.74E2,2E0,2.6E1,1E1,4E1,5E0,5.2E1,2E0,2E0,2E0,1.76E2,5E0,8E0,8E0,3E0,2E0,3E0,2.4E1,4.8E1,3E0,9E0,1E0,2.7E1,1.2E1,2.8E1,1.7E1,2E0,9E0,1E0,2E0,6E0,2.8E1,1.6E2,1.9E1,1.23E2,1.3E1,7.6E1,2E0,4E0,1E1,3.9E1,1.38E2,1.13E2,6E0,2E1,7E0,1E1,5E0,1.2E1,1E0,4.9E1,5.3E1,1.2E1,2E0,1.3E1,6.2E1,1.57E2,2E0,1E0,6E0,1E0,1E0,1E0,2E0,1E0,1E0,1E1,4E0,2.8E1,1E0,8E0,1.1E1,1.5E1,8E0,1E0,1E0,4.2E1,1E0,4E0,6E0,1.7E1,1E0,2.4E1,4E0,5.7E1,4E0,9E0,5E0,7E0,4E0,5.7E1,1E0,7E0,2.6E1,1.5E1,1E0,1E0,5E0,1E0,1.6E1,4E1,1E0,3E0,3.2E1,1E0,5E0,5.4E1,6E0,1.4E1,2E0,6E0,2E0,1.2E1,2E0,5E0,6E0,4.3E1,1E0,8E0,2E0,1.2E1,6E0,3.2E1,1E0,1.1E1,2E0,1.2E1,6E0,2.3E1,4E0,4E0,2E0,1.9E1,1.5E1,1.3E1,5.1E1,3E0,1E0,1E0,2E0,6E0,2E0,1.9E2,4.8E1,2.2E1,9.4E1,3.9E1,1E0,2E0,1.08E2,1E0,7E0,2.2E1,5E0,1.69E2,3E0,2.3E1,2E0,8E0,1E0,3.9E1,1E0,4E0,2E0,5E1,1E0,1E0,1.4E1,1.62E2,2E0,3E0,2E0,6E0,1E0,7E0,2E0,1E0,1E0,1E0,1.4E1,1E1,5E0,4.3E1,2E0,1E0,6E0,3E0,6E0,2.1E1,8E0,4E0,9E0,1.9E1,2E0,1.5E1,1E0,1E0,2E0,7E0,2E0,4E0,8E0,2E1,4E1,1.2E2,2E0,1.7E1,1.4E1,1.09E2,2E0,1.1E1,4E0,7.2E1,1E0,9E0,2E0,3.7E1,1E0,1.37E2,1.7E1,9.6E1,5E0,1E0,1E0,1.9E1,4E0,3E0,3E0,2E0,5E0,7E0,9E0,4E1,1E0,5.2E1,2E0,1E1,6E0,7E0,2E0,6E1,6.5E1,9.2E1,1E0,5E0,8E0,2E0,4E0,2.4E1,1E0,7E0,1.4E1,1E0,1E0,3E0,2E0,4E0,1.3E1,4E0,1E0,2.3E1,3E0,1E0,4E0,5.3E1,1E0,3E0,4E0,5E0,2E0,3E0,1E0,3E0,1E0,5.6E1,3E0,4E0,6E0,2E1,9E0,6E0,4E0,1.2E1,3.9E1,1E0,1.1E1,4.3E1,4E0,2E0,1E0,1.3E1,1E0,1E0,3E0,3E0,1E0,1E0,1E0,1.1E1],"tree_param":{"num_deleted":"0","num_feature":"51","num_nodes":"617","size_leaf_vector":"1"}},{"base_weights":[3.2225105E-3,-9.739194E0,3.0647547E1,-7.43326E0,-4.6143658E1,5.327368E1,1.9176079E1,-1.5063624E1,3.584799E-1,-3.1307053E1,-6.419293E1,4.5166805E1,8.4235435E1,6.5088983E0,3.2838253E1,-5.106051E0,-1.970792E1,1.693618E1,-2.6572556E0,-3.783078E1,-1.0744532E1,-2.2917381E1,-6.7939575E1,5.7578724E1,2.8993406E1,8.7981445E1,3.336047E1,1.3499949E1,-9.516218E0,4.2683357E1,2.1652588E1,-1.2720131E1,9.142678E-1,-1.4977253E1,-3.24611E1,2.1573814E1,1.1957329E1,-9.788315E0,2.6468458E0,-2.8945543E1,-4.1773342E1,-1.7503809E1,-4.183398E0,-1.341765E0,1.1270123E-1,-3.6785717E0,-4.7269573E1,2.8927229E1,6.60655E1,2.1386028E1,3.9278046E1,1.0280648E2,7.127475E1,-9.597988E-1,2.3855479E0,2.3524832E1,6.815721E0,-6.3504257E0,-4.47333E1,3.0559309E0,3.6336205E1,1.7200708E1,3.3384026E1,3.2173862E0,-1.434076E1,1.2095022E1,-4.8163247E0,-2.1403112E1,-1.1988411E1,-2.9987833E0,-2.9886135E1,1.9035843E1,5.5473694E1,-1.3845639E1,1.3127904E1,-3.1341743E0,-1.4560096E1,-4.0539064E0,8.635738E0,-3.1270197E1,-9.084299E-1,-1.698052E1,-4.4204784E1,-5.2375317E-1,-1.2624521E0,3.262062E-1,-6.5116615E0,-4.966738E-1,-2.4440746E0,3.9144447E1,1.498633E1,2.1345673E0,6.787177E1,2.5486826E1,9.90054E0,3.2689748E0,3.593656E1,2.6902397E0,1.0849456E2,-3.354874E-2,7.3695305E1,1.2089527E1,2.7499949E1,4.519797E1,5.0194387E0,8.783478E-1,-7.637204E0,-2.4351747E0,-4.235487E-1,2.6001879E1,4.807674E1,-1.5387714E1,1.8310051E1,4.4935078E1,1.267674E1,1.115842E0,-3.4236324E-1,-2.6148734E0,-1.3616405E1,6.060591E-1,1.634728E1,-1.4116259E1,-2.9883637E0,-2.0358213E1,-2.1819096E0,2.3048449E0,-1.305354E1,5.1410294E0,-3.0509525E1,8.973363E0,2.2016949E1,7.327701E0,1.586797E1,-1.5752811E1,-1.5542375E-1,8.230964E0,1.6255348E1,-2.300326E1,-1.9079652E0,-1.1550689E1,-2.6821379E1,-1.7099376E0,-2.2756804E1,1.3688453E1,6.0941987E0,-2.137703E1,-1.8710622E0,1.3707618E-1,-2.1473234E1,-3.274576E1,-4.8460804E1,-5.7905287E-1,-3.535079E0,2.106867E0,1.7386772E1,1.6324307E0,-1.9892244E1,5.0425213E-2,1.3781892E-1,6.0248264E1,3.6853406E0,2.7111883E1,6.0889497E0,2.0355389E1,2.1055958E0,4.4666496E1,3.0181889E1,1.5785042E0,5.519216E0,1.0535042E0,7.478341E1,1.4279405E1,-1.0116881E0,1.2410294E0,2.9174055E1,2.481548E0,5.758263E-1,8.365797E0,-1.2092616E1,-1.4311923E-1,-1.3329846E1,-6.528473E-2,2.9598476E1,4.176485E1,6.525632E1,-1.3254238E0,-2.844635E0,2.1097506E1,7.8184743E0,1.20945E0,5.20547E1,1.8356585E1,-7.5319786E0,4.4471054E0,-5.0937915E0,-1.7140995E1,-9.027155E0,-3.1326768E-1,4.43335E0,2.6593964E1,1.1551048E1,-1.535426E1,-1.5795909E-1,-7.934566E0,2.3654766E0,-1.2825649E1,-2.2035404E1,-2.5673885E0,7.946569E0,-2.8225129E0,-1.4610038E1,-8.229866E-2,7.2492733E0,-2.2631416E0,-3.1119038E1,6.847E-2,1.8614626E1,-2.7138557E0,2.3748014E1,8.832627E-2,9.1674775E-1,-1.5542375E-1,-9.4657165E-1,9.6237594E-1,1.120547E1,2.0054893E1,7.65351E0,1.5201188E-2,-2.5149742E1,1.1135502E1,-2.5189877E0,-1.4203178E1,-7.2555594E0,-5.740374E1,-2.2003422E1,2.0435636E-1,-1.7733007E1,-7.6609426E0,-3.6588398E1,1.4884807E1,3.8235054E0,-9.794729E0,7.216953E0,-1.2627722E0,-3.90891E0,-1.3009279E0,-8.229866E-2,-1.3771315E1,-1.8170881E0,-6.757105E-1,-2.4599926E0,-2.3509738E0,-2.5598156E-1,1.018984E0,2.1020126E-1,-4.4119633E1,3.251358E0,5.6392166E1,6.3263307E0,5.9943813E-1,2.9184252E1,7.612063E-1,-2.5379384E-1,-3.016737E-1,1.2493576E0,9.706508E-1,-3.2971892E0,2.6542857E0,3.0663969E1,3.9686355E-1,3.0692865E1,1.0724481E0,3.796109E0,1.1945801E0,1.7659906E1,-2.8446324E0,2.4565075E-1,-1.06673814E-1,2.972227E1,1.8946795E1,4.2129984E0,1.2256347E0,-1.9162544E1,-1.1060488E0,1.0173763E0,-2.3694323E1,-1.079151E1,-2.949463E1,1.2556619E1,-4.7229883E-1,3.0449186E1,1.5770974E1,4.555383E1,6.4895135E-1,3.4265587E0,1.5201188E-2,-2.2854881E-1,2.3663395E1,1.2761745E1,-1.0397093E0,1.2612153E1,1.3339158E0,2.779345E0,5.7757205E-1,2.1567196E1,-1.06673814E-1,-4.3101603E-1,7.952183E-1,-1.0984497E0,2.101797E0,-9.041885E0,-2.3429904E0,-1.807051E1,1.9512687E0,-1.1630712E1,-1.3104878E-1,5.07837E0,8.832627E-2,2.7875126E1,4.353364E0,1.4764855E1,-2.3521046E1,-1.2544851E1,-1.0754603E0,-7.2492356E0,-5.195631E0,7.7881427E0,-1.3161491E1,1.5201188E-2,3.745397E-1,-2.2426834E1,-4.547615E-1,-7.068953E0,4.536397E0,5.0474405E-1,-5.1817813E0,6.8773377E-1,-1.06046295E1,-1.996733E1,-4.0761948E-2,5.1045954E-1,-3.021271E-1,1.1371937E0,-1.7145311E1,-3.2092785E1,-7.235724E0,4.930325E0,2.1160564E1,8.232607E0,-8.94633E-1,-1.6999045E-1,1.6411034E1,2.700672E1,-7.529892E0,4.2630453E0,-3.504238E-1,1.2106271E1,7.0546455E0,2.1664522E1,8.869672E0,-2.1946335E0,-2.675052E1,-2.2854881E-1,1.1317617E0,4.616259E0,2.7721505E0,-3.4564037E0,-7.486317E0,-1.5172002E1,-2.0082346E1,-4.8602953E0,-7.2101593E-1,-3.585652E0,-4.478343E0,-2.6272732E1,1.0715702E0,-4.00496E-1,-2.8123144E1,-1.3963676E1,2.7444363E-1,-6.367842E-1,6.705208E-1,-5.097033E1,1.7542282E1,1.2099324E1,-2.424158E0,5.747792E0,-1.7843493E0,-3.5467649E0,-7.746791E0,7.9628496E0,-4.7158414E-1,1.7841588E-1,-8.3428067E-1,-1.2571049E-1,1.3707618E-1,-1.8283221E-1,-5.9417385E-1,-2.7147987E0,1.002873E0,-1.1791737E0,3.5142696E0,2.389348E0,1.7030182E1,3.2368954E1,5.758263E-1,-6.2227716E0,1.6991335E0,1.858263E-1,1.8125471E1,3.2636845E1,-2.95489E0,2.0040189E-1,2.3664864E1,9.88896E0,-1.797987E-1,-3.354874E-2,3.225058E1,1.7906155E1,-3.2604867E-1,2.0013086E1,-1.743574E1,5.5640464E0,-4.6520737E1,-8.765643E0,7.028463E0,-2.0272968E0,3.957634E-2,-2.6853994E1,-6.9275694E0,-1.663744E1,-2.2760487E0,6.3951306E-2,7.4365234E-1,-3.354874E-2,2.1168917E1,3.355444E1,1.1070918E0,4.3971315E-1,2.4749477E0,1.25327E0,2.5724719E0,2.0201948E1,6.286403E-1,1.7573078E1,7.230367E0,-4.4354978E0,-4.4696326E0,1.5583938E1,3.165432E-1,1.152572E0,-6.7952245E-1,3.30822E-1,2.134285E-1,-1.0996304E-1,-5.336564E-1,-2.2141838E-2,1.2331909E-1,-4.788807E-1,-1.4169691E0,-8.518287E-1,-3.9221397E-1,5.220808E-1,-1.08038746E-1,-6.6721946E-1,6.532345E-2,3.4168372E-1,7.2768027E-1,1.593964E0,8.7398404E-1,4.9466997E-2,1.965004E-1,8.654909E-1,-6.55674E-1,-1.6287826E0,-4.3374673E-1,-8.632681E-1,-2.0358346E-1,-5.0295585E-1,-5.2362252E-2,-3.836288E-1,-3.383176E-1,4.366115E-1,-6.787472E-1,-3.023343E-1,-7.4713844E-1,-1.1501348E0,-3.097647E-1,1.2304904E-1,-5.7165444E-1,5.5310566E-2,3.4389707E-1,1.6096638E-1,-1.5985299E-2,-3.395316E-1,4.202353E-1,-5.911949E-2,-1.6424038E-1,-6.1675024E-1,-8.955617E-1,-1.693783E0,-1.3089943E-2,8.453954E-2,-5.4090434E-1,-1.5083517E0,-1.2242475E0,-1.7055734E0,-8.3379364E-1,8.266592E-2,6.0009515E-1,5.9765846E-2,2.1020126E-1,1.1377314E0,1.8120627E-1,5.514513E-1,-9.173775E-3,-5.79237E-2,3.8683406E-1,1.3373893E0,4.0024972E-1,1.4492037E0,-4.47127E-1,-8.229866E-2,3.947656E-1,-1.5795909E-1,1.691535E-1,7.165775E-1,3.82623E-1,1.0163937E-1,6.02641E-1,1.2984086E0,-1.0879364E-1,5.1931787E-1,8.832627E-2,-2.529238E-1,-5.276827E-1,-1.4740266E0,-1.8934937E-1,4.3674776E-1,-7.968716E-2,2.2556202E-1,-4.0723133E-1,-9.1963366E-2,3.98407E-3,-4.165705E-1,-1.160744E0,-6.96866E-1,-2.171016E0,-6.2871623E-1,1.0223478E0,-3.2522824E-1,2.1020126E-1,-2.8834912E-1,-1.2127177E-2,-1.3818179E0,4.604136E-3,-1.2080604E0,-1.5643338E0,-2.2854881E-1,6.3951306E-2,-7.3410064E-1,3.1194794E-1,-3.6249056E-1,-1.2186556E-1,2.295395E-1,-5.3087234E-1,-2.6724143E0,-1.06673814E-1,8.9892334E-1,3.8594148E-1,6.5835565E-1,-1.4101587E-1,-3.089199E-2,-4.193573E-2,3.2451567E-1,-2.478873E-1,-9.344053E-2,-8.299919E-2,-5.4939127E-1,6.5840095E-1,2.879147E-1,1.858263E-1,9.048266E-1,6.4794797E-1,1.7478098E0,5.514513E-1,-4.8789373E-1,9.8394775E-1,2.589512E-1,9.796004E-1,1.8044217E0,-2.3492871E-1,1.3311959E-2,3.9684677E-1,1.3302364E0,1.9962339E-1,5.922838E-1,1.3707618E-1,1.6404117E0,1.3441854E0,3.185291E-1,-8.229866E-2,1.0408354E0,-1.0242094E0,-1.3104878E-1,-6.480521E-1,3.378334E-1,-3.016737E-1,-2.7567093E0,5.62337E-1,-1.1678435E0,8.869654E-1,-2.3432235E-1,-8.489174E-1,-3.6972363E-3,-6.8733424E-1,-1.5984522E0,-8.358464E-1,-1.6672829E-1,-1.1239742E0,-2.9574433E-1,4.5594788E-1,1.2087569E0,1.7054987E0,2.8332636E-1,1.1828016E0,8.013183E-1,2.6394776E-1,-3.6657155E-1,-3.2604867E-1,9.8799324E-1,1.1270123E-1,4.295763E-1,-4.2264682E-1,3.454075E-2,8.832627E-2,-4.235487E-1,-1.797987E-1,8.740964E-1],"categories":[],"categories_nodes":[],"categories_segments":[],"categories_sizes":[],"default_left":[0,0,0,0,0,0,0,0,0,0,0,0,0,0,0,0,0,0,0,0,0,0,0,0,0,0,0,0,0,0,0,0,0,0,0,0,0,0,0,0,0,0,0,0,0,0,0,0,0,0,0,0,0,0,0,0,0,0,0,0,0,0,0,0,0,0,0,0,0,0,0,0,0,0,0,0,0,0,0,0,0,0,0,0,0,0,0,0,0,0,0,0,0,0,0,0,0,0,0,0,0,0,0,0,0,0,0,0,0,0,0,0,0,0,0,0,0,0,0,0,0,0,0,0,0,0,0,0,0,0,0,0,0,0,0,0,0,0,0,0,0,0,0,0,0,0,0,0,0,0,0,0,0,0,0,0,0,0,0,0,0,0,0,0,0,0,0,0,0,0,0,0,0,0,0,0,0,0,0,0,0,0,0,0,0,0,0,0,0,0,0,0,0,0,0,0,0,0,0,0,0,0,0,0,0,0,0,0,0,0,0,0,0,0,0,0,0,0,0,0,0,0,0,0,0,0,0,0,0,0,0,0,0,0,0,0,0,0,0,0,0,0,0,0,0,0,0,0,0,0,0,0,0,0,0,0,0,0,0,0,0,0,0,0,0,0,0,0,0,0,0,0,0,0,0,0,0,0,0,0,0,0,0,0,0,0,0,0,0,0,0,0,0,0,0,0,0,0,0,0,0,0,0,0,0,0,0,0,0,0,0,0,0,0,0,0,0,0,0,0,0,0,0,0,0,0,0,0,0,0,0,0,0,0,0,0,0,0,0,0,0,0,0,0,0,0,0,0,0,0,0,0,0,0,0,0,0,0,0,0,0,0,0,0,0,0,0,0,0,0,0,0,0,0,0,0,0,0,0,0,0,0,0,0,0,0,0,0,0,0,0,0,0,0,0,0,0,0,0,0,0,0,0,0,0,0,0,0,0,0,0,0,0,0,0,0,0,0,0,0,0,0,0,0,0,0,0,0,0,0,0,0,0,0,0,0,0,0,0,0,0,0,0,0,0,0,0,0,0,0,0,0,0,0,0,0,0,0,0,0,0,0,0,0,0,0,0,0,0,0,0,0,0,0,0,0,0,0,0,0,0,0,0,0,0,0,0,0,0,0,0,0,0,0,0,0,0,0,0,0,0,0,0,0,0,0,0,0,0,0,0,0,0,0,0,0,0,0,0,0,0,0,0,0,0,0,0,0,0,0,0,0,0,0,0,0,0,0,0,0,0,0,0,0,0,0,0,0,0,0,0,0,0,0,0,0,0,0,0,0,0,0,0,0,0,0,0,0,0,0,0,0,0,0,0,0,0,0,0,0,0,0,0,0,0,0,0,0,0,0,0,0,0,0,0,0,0,0,0,0,0,0,0,0,0,0,0,0,0,0,0,0,0,0,0,0,0,0,0,0,0,0,0,0,0,0,0,0,0,0,0,0,0,0,0,0,0,0,0],"id":1,"left_children":[1,3,5,7,9,11,13,15,17,19,21,23,25,27,29,31,33,35,37,39,41,43,45,47,49,51,53,55,57,59,61,63,65,67,69,71,73,75,77,79,81,83,85,-1,-1,-1,87,89,91,93,95,97,99,-1,-1,101,103,105,107,-1,109,111,113,115,117,119,121,123,125,-1,127,129,131,133,135,137,139,141,143,145,-1,147,149,-1,-1,-1,151,-1,-1,153,155,157,159,161,163,-1,165,-1,167,-1,169,171,173,175,177,-1,179,-1,-1,181,183,185,187,189,191,-1,193,-1,195,197,199,201,203,205,-1,207,209,211,213,215,217,-1,219,221,-1,223,225,227,229,231,233,235,237,239,241,243,-1,-1,245,247,249,-1,251,-1,253,-1,255,-1,-1,257,-1,259,261,263,265,267,269,-1,-1,-1,271,273,-1,275,277,-1,-1,279,281,283,285,287,289,291,293,-1,295,297,299,-1,301,303,305,307,309,311,313,-1,315,317,319,321,-1,323,325,327,329,331,333,335,337,-1,339,341,343,345,347,349,351,-1,-1,-1,-1,353,355,357,359,-1,361,363,365,367,369,371,373,375,377,379,381,383,385,387,389,-1,391,-1,-1,393,-1,-1,-1,395,-1,-1,-1,397,399,401,-1,-1,403,-1,-1,-1,-1,-1,405,-1,407,-1,409,-1,-1,411,413,415,-1,-1,417,419,421,-1,423,-1,425,427,429,431,433,-1,435,437,439,-1,-1,-1,-1,441,443,445,447,-1,-1,-1,449,-1,-1,-1,451,453,455,457,459,461,463,-1,465,-1,467,469,471,473,475,-1,477,479,481,483,-1,-1,485,487,489,491,-1,493,495,497,499,-1,-1,-1,501,503,505,507,509,511,513,515,-1,517,519,521,523,-1,525,527,529,531,533,535,-1,-1,537,539,541,543,545,547,549,-1,-1,551,553,-1,555,557,559,561,-1,563,565,567,569,571,573,-1,575,577,579,-1,-1,-1,-1,-1,-1,-1,-1,-1,-1,-1,-1,581,583,-1,585,-1,-1,587,589,591,-1,593,595,-1,-1,597,599,-1,601,603,605,607,609,611,613,-1,615,617,619,-1,-1,-1,-1,621,623,-1,-1,-1,-1,-1,625,627,629,631,633,635,637,-1,-1,-1,-1,-1,-1,-1,-1,-1,-1,-1,-1,-1,-1,-1,-1,-1,-1,-1,-1,-1,-1,-1,-1,-1,-1,-1,-1,-1,-1,-1,-1,-1,-1,-1,-1,-1,-1,-1,-1,-1,-1,-1,-1,-1,-1,-1,-1,-1,-1,-1,-1,-1,-1,-1,-1,-1,-1,-1,-1,-1,-1,-1,-1,-1,-1,-1,-1,-1,-1,-1,-1,-1,-1,-1,-1,-1,-1,-1,-1,-1,-1,-1,-1,-1,-1,-1,-1,-1,-1,-1,-1,-1,-1,-1,-1,-1,-1,-1,-1,-1,-1,-1,-1,-1,-1,-1,-1,-1,-1,-1,-1,-1,-1,-1,-1,-1,-1,-1,-1,-1,-1,-1,-1,-1,-1,-1,-1,-1,-1,-1,-1,-1,-1,-1,-1,-1,-1,-1,-1,-1,-1,-1,-1,-1,-1,-1,-1,-1,-1,-1,-1,-1,-1,-1,-1,-1,-1,-1,-1,-1,-1,-1,-1,-1,-1,-1,-1,-1,-1,-1,-1,-1,-1,-1,-1,-1,-1,-1,-1,-1,-1,-1,-1,-1,-1,-1,-1,-1,-1],"loss_changes":[1.157179E6,2.4654306E5,2.4166238E5,1.6451414E5,4.4853594E4,7.501031E4,1.0743034E5,6.4551156E4,6.8536734E4,1.2739664E4,1.0505281E4,4.8717094E4,9.261875E3,3.642697E4,3.2002875E4,2.0455906E4,5.7009312E4,4.614043E3,4.390159E4,1.3831172E3,1.035488E3,8.4944336E2,4.7874688E3,3.2374312E4,7.844547E3,7.2854688E3,5.4411216E3,1.4983605E4,1.0753431E4,1.6267E4,6.841992E3,5.134416E3,1.6076339E4,1.3129891E4,1.6415781E4,8.235996E3,3.3230117E3,1.567166E4,2.6761646E4,8.323242E1,2.2032188E3,3.887859E2,3.91502E2,0E0,0E0,0E0,5.9772656E2,4.2562363E3,1.2326594E4,2.856246E3,1.6625E3,2.2455312E3,5.4480625E3,0E0,0E0,3.7586406E3,9.218645E3,2.9655884E3,7.391836E2,0E0,1.33095625E4,4.0776855E3,8.519629E3,1.2994365E3,4.2093477E3,4.1426875E3,2.7798015E3,4.2229688E3,7.3072344E3,0E0,5.331875E3,2.8621562E3,2.29256E4,5.34209E1,1.3976934E3,5.02375E3,1.031716E4,1.3770375E4,4.4368477E3,4.1711328E2,0E0,5.9050256E2,5.589922E2,0E0,0E0,0E0,1.401337E2,0E0,0E0,5.0461523E2,1.0506018E4,2.0973206E-2,2.300625E2,1.3480059E3,1.5055442E3,0E0,8.121094E2,0E0,1.49375E2,0E0,1.4215625E2,2.0585264E3,2.865168E3,3.242793E2,7.6598896E3,0E0,3.752273E3,0E0,0E0,6.1896367E3,3.2385312E3,4.8254755E2,2.8180195E3,2.285746E3,1.8599968E3,0E0,4.095185E2,0E0,2.7082773E3,6.5895E2,2.73983E3,3.177456E2,3.7261343E3,2.3956875E3,0E0,9.5498694E2,7.0451953E3,8.34754E1,3.9410312E3,2.1450854E3,3.4036836E3,0E0,1.7633911E2,1.01918335E2,0E0,8.756553E2,1.8074932E3,6.079907E2,1.5981106E3,2.5514668E3,6.988215E3,8.622698E3,7.0276914E3,1.323918E3,4.2807773E3,5.7876514E2,0E0,0E0,4.0778052E2,5.230078E2,1.0991406E2,0E0,4.8503723E0,0E0,7.2142334E1,0E0,3.5077031E3,0E0,0E0,5.89925E3,0E0,1.0291055E3,5.872391E2,1.128575E3,1.1861077E3,1.4053516E2,8.6009766E1,0E0,0E0,0E0,1.32875E2,1.0405029E3,0E0,8.8988174E1,1.1275312E3,0E0,0E0,4.797601E3,6.163257E3,1.0172084E3,1.0597285E3,3.7134421E3,2.214121E3,3.5166562E3,1.3361367E3,0E0,1.7696661E1,1.4091055E3,9.8976855E2,0E0,4.0820312E1,1.3052002E1,5.110428E0,5.8930194E2,2.7468396E2,1.3194062E3,2.2807476E3,0E0,8.611319E1,5.5511035E2,9.5353076E2,2.5558398E2,0E0,5.2320215E2,2.8285566E3,1.8479102E2,2.1558828E3,1.7747772E2,7.142346E1,5.0046057E2,8.0710938E3,0E0,1.0380408E2,8.3978905E1,2.5521094E3,5.3284155E2,1.4297705E2,4.4458275E0,1.3021523E3,0E0,0E0,0E0,0E0,3.964925E2,5.606531E2,7.051113E2,2.5900452E2,0E0,2.4008643E2,5.702357E2,9.4702136E2,8.169824E2,2.6982363E3,3.2713145E3,3.6233398E3,3.244069E3,7.8221387E2,7.283557E2,9.679572E3,5.575957E2,1.8224567E2,2.4618088E3,2.5283574E3,0E0,1.5754031E2,0E0,0E0,8.9275085E1,0E0,0E0,0E0,5.6568638E1,0E0,0E0,0E0,3.3891357E2,2.2769802E3,2.6189844E3,0E0,0E0,9.196211E2,0E0,0E0,0E0,0E0,0E0,5.0505215E2,0E0,5.89147E2,0E0,9.250391E1,0E0,0E0,8.188946E1,6.5259863E2,2.4866676E0,0E0,0E0,1.2448789E3,9.723418E2,2.4661401E3,0E0,4.996584E3,0E0,7.097169E2,7.1756104E2,8.3345215E2,1.53779E3,2.2446472E2,0E0,9.3228906E2,1.164126E2,1.7499766E3,0E0,0E0,0E0,0E0,4.731414E3,1.2148569E3,2.8482114E2,8.311052E2,0E0,0E0,0E0,1.2365234E1,0E0,0E0,0E0,7.6454114E2,4.666536E1,7.943631E1,2.6718002E2,5.0460938E2,1.4125884E3,1.0097842E3,0E0,9.038449E1,0E0,4.9618652E2,6.450653E2,7.592002E2,4.4001953E1,2.1558374E2,0E0,5.929719E2,2.8994922E2,6.0871436E2,3.5581543E1,0E0,0E0,3.889375E2,2.4957732E2,2.2671255E2,2.5294647E0,0E0,2.794336E2,3.7072992E2,2.7840098E3,4.0831328E3,0E0,0E0,0E0,3.5405602E0,1.0743042E3,2.4206406E3,5.3105383E2,2.233655E2,1.4760742E2,1.15784E1,3.5034585E-1,0E0,2.0346772E3,1.6090703E3,1.8528458E1,2.9453778E2,0E0,4.9503906E2,2.4570312E0,1.176166E3,3.2414636E2,4.2968323E1,1.3104834E2,0E0,0E0,2.7535205E2,2.2737758E2,1.2056409E3,1.2854346E2,9.078164E2,1.9071265E3,3.37873E3,0E0,0E0,1.473174E2,1.4131172E3,0E0,2.881414E3,3.785459E2,2.8156396E2,4.042595E2,0E0,8.429041E1,7.324219E2,4.7605176E2,1.5094775E2,1.1198559E0,5.9240387E1,0E0,2.3880783E1,1.9876343E2,2.345417E3,0E0,0E0,0E0,0E0,0E0,0E0,0E0,0E0,0E0,0E0,0E0,0E0,7.471387E1,1.0033379E3,0E0,6.565018E2,0E0,0E0,1.875476E1,3.2853906E2,1.8100842E1,0E0,2.5121973E2,6.8084045E1,0E0,0E0,7.1639844E2,1.1750312E3,0E0,5.5643555E2,1.7212158E2,1.7887671E3,1.4110244E3,4.6427666E3,1.7143297E3,7.580659E2,0E0,9.6887695E1,8.9393274E2,8.6930225E2,0E0,0E0,0E0,0E0,3.953706E2,4.4191797E2,0E0,0E0,0E0,0E0,0E0,4.1413477E2,2.9782016E2,9.191826E2,9.5526123E-1,1.5000195E2,8.982318E1,5.3610767E2,0E0,0E0,0E0,0E0,0E0,0E0,0E0,0E0,0E0,0E0,0E0,0E0,0E0,0E0,0E0,0E0,0E0,0E0,0E0,0E0,0E0,0E0,0E0,0E0,0E0,0E0,0E0,0E0,0E0,0E0,0E0,0E0,0E0,0E0,0E0,0E0,0E0,0E0,0E0,0E0,0E0,0E0,0E0,0E0,0E0,0E0,0E0,0E0,0E0,0E0,0E0,0E0,0E0,0E0,0E0,0E0,0E0,0E0,0E0,0E0,0E0,0E0,0E0,0E0,0E0,0E0,0E0,0E0,0E0,0E0,0E0,0E0,0E0,0E0,0E0,0E0,0E0,0E0,0E0,0E0,0E0,0E0,0E0,0E0,0E0,0E0,0E0,0E0,0E0,0E0,0E0,0E0,0E0,0E0,0E0,0E0,0E0,0E0,0E0,0E0,0E0,0E0,0E0,0E0,0E0,0E0,0E0,0E0,0E0,0E0,0E0,0E0,0E0,0E0,0E0,0E0,0E0,0E0,0E0,0E0,0E0,0E0,0E0,0E0,0E0,0E0,0E0,0E0,0E0,0E0,0E0,0E0,0E0,0E0,0E0,0E0,0E0,0E0,0E0,0E0,0E0,0E0,0E0,0E0,0E0,0E0,0E0,0E0,0E0,0E0,0E0,0E0,0E0,0E0,0E0,0E0,0E0,0E0,0E0,0E0,0E0,0E0,0E0,0E0,0E0,0E0,0E0,0E0,0E0,0E0,0E0,0E0,0E0,0E0,0E0,0E0,0E0,0E0,0E0,0E0,0E0,0E0,0E0,0E0,0E0,0E0,0E0,0E0,0E0,0E0],"parents":[2147483647,0,0,1,1,2,2,3,3,4,4,5,5,6,6,7,7,8,8,9,9,10,10,11,11,12,12,13,13,14,14,15,15,16,16,17,17,18,18,19,19,20,20,21,21,22,22,23,23,24,24,25,25,26,26,27,27,28,28,29,29,30,30,31,31,32,32,33,33,34,34,35,35,36,36,37,37,38,38,39,39,40,40,41,41,42,42,46,46,47,47,48,48,49,49,50,50,51,51,52,52,55,55,56,56,57,57,58,58,60,60,61,61,62,62,63,63,64,64,65,65,66,66,67,67,68,68,70,70,71,71,72,72,73,73,74,74,75,75,76,76,77,77,78,78,79,79,81,81,82,82,86,86,89,89,90,90,91,91,92,92,93,93,94,94,96,96,98,98,100,100,101,101,102,102,103,103,104,104,106,106,109,109,110,110,111,111,112,112,113,113,114,114,116,116,118,118,119,119,120,120,121,121,122,122,123,123,125,125,126,126,127,127,128,128,129,129,130,130,132,132,133,133,135,135,136,136,137,137,138,138,139,139,140,140,141,141,142,142,143,143,144,144,145,145,148,148,149,149,150,150,152,152,154,154,156,156,159,159,161,161,162,162,163,163,164,164,165,165,166,166,170,170,171,171,173,173,174,174,177,177,178,178,179,179,180,180,181,181,182,182,183,183,184,184,186,186,187,187,188,188,190,190,191,191,192,192,193,193,194,194,195,195,196,196,198,198,199,199,200,200,201,201,203,203,204,204,205,205,206,206,207,207,208,208,209,209,210,210,212,212,213,213,214,214,215,215,216,216,217,217,218,218,223,223,224,224,225,225,226,226,228,228,229,229,230,230,231,231,232,232,233,233,234,234,235,235,236,236,237,237,238,238,239,239,240,240,241,241,242,242,244,244,247,247,251,251,255,255,256,256,257,257,260,260,266,266,268,268,270,270,273,273,274,274,275,275,278,278,279,279,280,280,282,282,284,284,285,285,286,286,287,287,288,288,290,290,291,291,292,292,297,297,298,298,299,299,300,300,304,304,308,308,309,309,310,310,311,311,312,312,313,313,314,314,316,316,318,318,319,319,320,320,321,321,322,322,324,324,325,325,326,326,327,327,330,330,331,331,332,332,333,333,335,335,336,336,337,337,338,338,342,342,343,343,344,344,345,345,346,346,347,347,348,348,349,349,351,351,352,352,353,353,354,354,356,356,357,357,358,358,359,359,360,360,361,361,364,364,365,365,366,366,367,367,368,368,369,369,370,370,373,373,374,374,376,376,377,377,378,378,379,379,381,381,382,382,383,383,384,384,385,385,386,386,388,388,389,389,390,390,403,403,404,404,406,406,409,409,410,410,411,411,413,413,414,414,417,417,418,418,420,420,421,421,422,422,423,423,424,424,425,425,426,426,428,428,429,429,430,430,435,435,436,436,442,442,443,443,444,444,445,445,446,446,447,447,448,448],"right_children":[2,4,6,8,10,12,14,16,18,20,22,24,26,28,30,32,34,36,38,40,42,44,46,48,50,52,54,56,58,60,62,64,66,68,70,72,74,76,78,80,82,84,86,-1,-1,-1,88,90,92,94,96,98,100,-1,-1,102,104,106,108,-1,110,112,114,116,118,120,122,124,126,-1,128,130,132,134,136,138,140,142,144,146,-1,148,150,-1,-1,-1,152,-1,-1,154,156,158,160,162,164,-1,166,-1,168,-1,170,172,174,176,178,-1,180,-1,-1,182,184,186,188,190,192,-1,194,-1,196,198,200,202,204,206,-1,208,210,212,214,216,218,-1,220,222,-1,224,226,228,230,232,234,236,238,240,242,244,-1,-1,246,248,250,-1,252,-1,254,-1,256,-1,-1,258,-1,260,262,264,266,268,270,-1,-1,-1,272,274,-1,276,278,-1,-1,280,282,284,286,288,290,292,294,-1,296,298,300,-1,302,304,306,308,310,312,314,-1,316,318,320,322,-1,324,326,328,330,332,334,336,338,-1,340,342,344,346,348,350,352,-1,-1,-1,-1,354,356,358,360,-1,362,364,366,368,370,372,374,376,378,380,382,384,386,388,390,-1,392,-1,-1,394,-1,-1,-1,396,-1,-1,-1,398,400,402,-1,-1,404,-1,-1,-1,-1,-1,406,-1,408,-1,410,-1,-1,412,414,416,-1,-1,418,420,422,-1,424,-1,426,428,430,432,434,-1,436,438,440,-1,-1,-1,-1,442,444,446,448,-1,-1,-1,450,-1,-1,-1,452,454,456,458,460,462,464,-1,466,-1,468,470,472,474,476,-1,478,480,482,484,-1,-1,486,488,490,492,-1,494,496,498,500,-1,-1,-1,502,504,506,508,510,512,514,516,-1,518,520,522,524,-1,526,528,530,532,534,536,-1,-1,538,540,542,544,546,548,550,-1,-1,552,554,-1,556,558,560,562,-1,564,566,568,570,572,574,-1,576,578,580,-1,-1,-1,-1,-1,-1,-1,-1,-1,-1,-1,-1,582,584,-1,586,-1,-1,588,590,592,-1,594,596,-1,-1,598,600,-1,602,604,606,608,610,612,614,-1,616,618,620,-1,-1,-1,-1,622,624,-1,-1,-1,-1,-1,626,628,630,632,634,636,638,-1,-1,-1,-1,-1,-1,-1,-1,-1,-1,-1,-1,-1,-1,-1,-1,-1,-1,-1,-1,-1,-1,-1,-1,-1,-1,-1,-1,-1,-1,-1,-1,-1,-1,-1,-1,-1,-1,-1,-1,-1,-1,-1,-1,-1,-1,-1,-1,-1,-1,-1,-1,-1,-1,-1,-1,-1,-1,-1,-1,-1,-1,-1,-1,-1,-1,-1,-1,-1,-1,-1,-1,-1,-1,-1,-1,-1,-1,-1,-1,-1,-1,-1,-1,-1,-1,-1,-1,-1,-1,-1,-1,-1,-1,-1,-1,-1,-1,-1,-1,-1,-1,-1,-1,-1,-1,-1,-1,-1,-1,-1,-1,-1,-1,-1,-1,-1,-1,-1,-1,-1,-1,-1,-1,-1,-1,-1,-1,-1,-1,-1,-1,-1,-1,-1,-1,-1,-1,-1,-1,-1,-1,-1,-1,-1,-1,-1,-1,-1,-1,-1,-1,-1,-1,-1,-1,-1,-1,-1,-1,-1,-1,-1,-1,-1,-1,-1,-1,-1,-1,-1,-1,-1,-1,-1,-1,-1,-1,-1,-1,-1,-1,-1,-1,-1,-1,-1,-1,-1,-1],"split_conditions":[2.7740797E-1,1.3836988E0,-6.0366863E-1,-4.334254E-1,2.00001E0,2.5622296E0,1.369045E0,-5.00647E-1,-8.047764E-1,1.5047345E-1,2.00001E0,2.00001E0,2.00001E0,8.6642647E-1,2.2009425E-1,-7.380683E-1,2.00001E0,-1.1174977E0,2.00001E0,2.00001E0,2.00001E0,1.5047345E-1,-4.334254E-1,2.00001E0,1.369045E0,-1.3683535E0,-1.8977596E0,2.00001E0,2.00001E0,2.00001E0,2.5622296E0,-1.8711802E0,-1.3214257E0,-8.650028E-1,2.00001E0,-1.1322712E0,2.00001E0,7.811366E-2,1.5047345E-1,2.630665E0,2.00001E0,2.4281964E0,2.00001E0,-1.341765E0,1.1270123E-1,-3.6785717E0,1.4389564E0,2.00001E0,2.00001E0,2.00001E0,-1.962888E0,2.00001E0,2.00001E0,-9.597988E-1,2.3855479E0,2.00001E0,2.00001E0,2.00001E0,1.115176E0,3.0559309E0,2.409908E0,2.00001E0,8.866602E-1,2.00001E0,2.00001E0,2.00001E0,2.00001E0,-9.9193734E-1,2.00001E0,-2.9987833E0,2.00001E0,2.00001E0,2.00001E0,-9.264084E-1,-1.7955634E-1,2.00001E0,2.00001E0,2.00001E0,2.00001E0,1.8927072E0,-9.084299E-1,1.6848111E0,1.6848111E0,-5.2375317E-1,-1.2624521E0,3.262062E-1,2.00001E0,-4.966738E-1,-2.4440746E0,2.00001E0,3.027949E-1,-1.1029208E0,1.369045E0,1.0390152E0,3.027949E-1,3.2689748E0,2.00001E0,2.6902397E0,2.00001E0,-3.354874E-2,2.00001E0,1.0390152E0,2.00001E0,1.0390152E0,2.00001E0,8.783478E-1,1.237619E0,-2.4351747E0,-4.235487E-1,2.00001E0,3.0699677E0,2.00001E0,1.1645217E0,2.00001E0,1.9711663E0,1.115842E0,-2.0735998E0,-2.6148734E0,2.00001E0,2.00001E0,-1.8214977E0,-5.6035995E-1,2.00001E0,2.00001E0,-2.1819096E0,2.00001E0,2.00001E0,2.00001E0,2.00001E0,2.00001E0,2.00001E0,7.327701E0,2.00001E0,2.00001E0,-1.5542375E-1,2.00001E0,2.00001E0,2.00001E0,2.00001E0,2.00001E0,2.00001E0,9.550024E-1,2.00001E0,7.643231E-1,2.00001E0,2.00001E0,-1.8710622E0,1.3707618E-1,1.8927072E0,2.00001E0,2.00001E0,-5.7905287E-1,1.6848111E0,2.106867E0,-8.4421086E-1,1.6324307E0,-1.0126232E0,5.0425213E-2,1.3781892E-1,-6.2877226E-1,3.6853406E0,2.00001E0,-1.3419217E0,2.00001E0,2.00001E0,2.00001E0,2.00001E0,1.5785042E0,5.519216E0,1.0535042E0,2.00001E0,7.851461E-1,-1.0116881E0,3.8891652E-1,2.00001E0,2.481548E0,5.758263E-1,4.0434253E-1,-5.4980487E-1,8.7701887E-1,1.341608E0,2.00001E0,2.00001E0,2.00001E0,2.00001E0,-1.3254238E0,2.7523696E-1,1.6736878E0,2.00001E0,1.20945E0,2.00001E0,2.00001E0,2.6383903E0,-1.1188719E0,2.00001E0,2.00001E0,-1.4624552E0,-3.1326768E-1,2.00001E0,2.00001E0,2.00001E0,-1.1322712E0,-1.5795909E-1,2.00001E0,2.00001E0,-1.0680981E0,-1.6012231E0,8.026426E-1,2.00001E0,-7.1268135E-1,3.6878115E-1,-8.229866E-2,-3.6470047E-1,2.00001E0,2.00001E0,-1.7955634E-1,-1.2172891E0,2.00001E0,2.00001E0,8.832627E-2,9.1674775E-1,-1.5542375E-1,-9.4657165E-1,2.00001E0,2.00001E0,2.00001E0,-8.3040464E-1,1.5201188E-2,-7.103236E-2,2.00001E0,2.00001E0,2.00001E0,2.00001E0,-1.7955634E-1,3.154093E-1,2.00001E0,2.00001E0,2.00001E0,2.00001E0,-8.019149E-3,2.00001E0,2.00001E0,2.00001E0,-1.2627722E0,1.6081393E0,-1.3009279E0,-8.229866E-2,2.00001E0,-1.8170881E0,-6.757105E-1,-2.4599926E0,2.00001E0,-2.5598156E-1,1.018984E0,2.1020126E-1,-1.4057876E0,-8.1584424E-1,-1.4860175E0,6.3263307E0,5.9943813E-1,2.00001E0,7.612063E-1,-2.5379384E-1,-3.016737E-1,1.2493576E0,9.706508E-1,2.00001E0,2.6542857E0,-7.3176104E-1,3.9686355E-1,2.00001E0,1.0724481E0,3.796109E0,2.00001E0,2.0674719E-1,-5.00647E-1,2.4565075E-1,-1.06673814E-1,4.936106E-1,2.00001E0,2.00001E0,1.2256347E0,-3.572563E-1,-1.1060488E0,2.00001E0,6.582116E-1,7.851461E-1,-2.2727823E-1,2.00001E0,-4.7229883E-1,2.00001E0,2.00001E0,4.1565016E-2,6.4895135E-1,3.4265587E0,1.5201188E-2,-2.2854881E-1,2.00001E0,3.3628255E-1,2.00001E0,2.00001E0,1.3339158E0,2.779345E0,5.7757205E-1,9.550024E-1,-1.06673814E-1,-4.3101603E-1,7.952183E-1,2.00001E0,-1.962888E0,-1.8977596E0,-1.0633551E0,-1.6590538E0,2.00001E0,2.00001E0,-1.3104878E-1,2.00001E0,8.832627E-2,2.00001E0,2.00001E0,2.00001E0,-1.2599373E0,2.00001E0,-1.0754603E0,-7.082151E-1,-8.7424994E-1,2.00001E0,9.550024E-1,1.5201188E-2,3.745397E-1,2.00001E0,2.00001E0,8.6642647E-1,4.0334576E-1,5.0474405E-1,7.811366E-2,2.00001E0,2.00001E0,-4.8419923E-1,-4.0761948E-2,5.1045954E-1,-3.021271E-1,-4.2041707E-1,-5.6035995E-1,-1.9476321E-1,-1.3047992E0,-1.5379956E0,2.00001E0,-1.1590801E0,-1.5167124E0,-1.6999045E-1,2.00001E0,2.00001E0,-1.0447775E0,-8.9417213E-1,-3.504238E-1,2.00001E0,-8.602962E-1,2.00001E0,2.00001E0,2.00001E0,2.00001E0,-2.2854881E-1,1.1317617E0,-5.00647E-1,2.00001E0,-5.701042E-1,2.00001E0,2.00001E0,-1.7955634E-1,2.00001E0,-7.2101593E-1,-3.585652E0,2.00001E0,2.00001E0,1.0715702E0,-1.7955634E-1,2.00001E0,2.00001E0,-1.7955634E-1,-6.367842E-1,2.3629436E-1,2.00001E0,2.00001E0,1.06463864E-1,8.38519E-1,7.7491546E-1,-1.7843493E0,-9.8808676E-2,2.00001E0,2.00001E0,-4.7158414E-1,1.7841588E-1,-8.3428067E-1,-1.2571049E-1,1.3707618E-1,-1.8283221E-1,-5.9417385E-1,-2.7147987E0,1.002873E0,-1.1791737E0,3.5142696E0,2.389348E0,2.00001E0,2.00001E0,5.758263E-1,2.00001E0,1.6991335E0,1.858263E-1,-9.99768E-1,2.00001E0,-7.87061E-2,2.0040189E-1,2.00001E0,2.00001E0,-1.797987E-1,-3.354874E-2,2.00001E0,3.027949E-1,-3.2604867E-1,2.00001E0,-4.7158502E-2,2.00001E0,-5.143876E-1,3.027949E-1,7.851461E-1,2.00001E0,3.957634E-2,2.00001E0,5.3127706E-1,1.2928842E0,-2.2760487E0,6.3951306E-2,7.4365234E-1,-3.354874E-2,2.00001E0,2.3083606E0,1.1070918E0,4.3971315E-1,2.4749477E0,1.25327E0,2.5724719E0,5.6678987E-1,2.8733784E-1,2.00001E0,1.341608E0,2.00001E0,1.5499305E0,2.00001E0,3.165432E-1,1.152572E0,-6.7952245E-1,3.30822E-1,2.134285E-1,-1.0996304E-1,-5.336564E-1,-2.2141838E-2,1.2331909E-1,-4.788807E-1,-1.4169691E0,-8.518287E-1,-3.9221397E-1,5.220808E-1,-1.08038746E-1,-6.6721946E-1,6.532345E-2,3.4168372E-1,7.2768027E-1,1.593964E0,8.7398404E-1,4.9466997E-2,1.965004E-1,8.654909E-1,-6.55674E-1,-1.6287826E0,-4.3374673E-1,-8.632681E-1,-2.0358346E-1,-5.0295585E-1,-5.2362252E-2,-3.836288E-1,-3.383176E-1,4.366115E-1,-6.787472E-1,-3.023343E-1,-7.4713844E-1,-1.1501348E0,-3.097647E-1,1.2304904E-1,-5.7165444E-1,5.5310566E-2,3.4389707E-1,1.6096638E-1,-1.5985299E-2,-3.395316E-1,4.202353E-1,-5.911949E-2,-1.6424038E-1,-6.1675024E-1,-8.955617E-1,-1.693783E0,-1.3089943E-2,8.453954E-2,-5.4090434E-1,-1.5083517E0,-1.2242475E0,-1.7055734E0,-8.3379364E-1,8.266592E-2,6.0009515E-1,5.9765846E-2,2.1020126E-1,1.1377314E0,1.8120627E-1,5.514513E-1,-9.173775E-3,-5.79237E-2,3.8683406E-1,1.3373893E0,4.0024972E-1,1.4492037E0,-4.47127E-1,-8.229866E-2,3.947656E-1,-1.5795909E-1,1.691535E-1,7.165775E-1,3.82623E-1,1.0163937E-1,6.02641E-1,1.2984086E0,-1.0879364E-1,5.1931787E-1,8.832627E-2,-2.529238E-1,-5.276827E-1,-1.4740266E0,-1.8934937E-1,4.3674776E-1,-7.968716E-2,2.2556202E-1,-4.0723133E-1,-9.1963366E-2,3.98407E-3,-4.165705E-1,-1.160744E0,-6.96866E-1,-2.171016E0,-6.2871623E-1,1.0223478E0,-3.2522824E-1,2.1020126E-1,-2.8834912E-1,-1.2127177E-2,-1.3818179E0,4.604136E-3,-1.2080604E0,-1.5643338E0,-2.2854881E-1,6.3951306E-2,-7.3410064E-1,3.1194794E-1,-3.6249056E-1,-1.2186556E-1,2.295395E-1,-5.3087234E-1,-2.6724143E0,-1.06673814E-1,8.9892334E-1,3.8594148E-1,6.5835565E-1,-1.4101587E-1,-3.089199E-2,-4.193573E-2,3.2451567E-1,-2.478873E-1,-9.344053E-2,-8.299919E-2,-5.4939127E-1,6.5840095E-1,2.879147E-1,1.858263E-1,9.048266E-1,6.4794797E-1,1.7478098E0,5.514513E-1,-4.8789373E-1,9.8394775E-1,2.589512E-1,9.796004E-1,1.8044217E0,-2.3492871E-1,1.3311959E-2,3.9684677E-1,1.3302364E0,1.9962339E-1,5.922838E-1,1.3707618E-1,1.6404117E0,1.3441854E0,3.185291E-1,-8.229866E-2,1.0408354E0,-1.0242094E0,-1.3104878E-1,-6.480521E-1,3.378334E-1,-3.016737E-1,-2.7567093E0,5.62337E-1,-1.1678435E0,8.869654E-1,-2.3432235E-1,-8.489174E-1,-3.6972363E-3,-6.8733424E-1,-1.5984522E0,-8.358464E-1,-1.6672829E-1,-1.1239742E0,-2.9574433E-1,4.5594788E-1,1.2087569E0,1.7054987E0,2.8332636E-1,1.1828016E0,8.013183E-1,2.6394776E-1,-3.6657155E-1,-3.2604867E-1,9.8799324E-1,1.1270123E-1,4.295763E-1,-4.2264682E-1,3.454075E-2,8.832627E-2,-4.235487E-1,-1.797987E-1,8.740964E-1],"split_indices":[1,0,0,1,48,1,1,0,0,1,46,46,48,0,0,1,48,0,4,22,4,1,1,3,1,0,0,50,48,16,1,0,0,1,31,0,20,0,1,0,46,0,27,0,0,0,0,50,17,48,0,41,3,0,0,2,16,26,1,0,1,31,0,21,20,4,4,1,2,0,2,42,33,0,1,31,48,48,50,0,0,0,0,0,0,0,49,0,0,48,1,0,1,1,1,0,50,0,42,0,23,1,17,1,48,0,0,0,0,19,1,13,0,2,0,0,0,0,3,33,0,1,20,44,0,42,14,32,14,4,17,0,17,48,0,4,48,40,41,42,33,0,46,0,17,42,0,0,0,4,41,0,0,0,0,0,0,0,0,0,0,36,0,2,39,49,5,0,0,0,2,1,0,0,19,0,0,1,0,0,0,39,22,31,30,0,0,1,42,0,39,49,1,1,32,49,0,0,49,44,46,0,0,31,17,1,1,0,32,1,0,0,0,49,50,1,0,48,44,0,0,0,0,36,17,17,0,0,0,40,50,40,31,1,0,27,42,50,22,0,33,33,31,0,0,0,0,32,0,0,0,36,0,0,0,0,0,0,0,0,22,0,0,0,0,0,33,0,0,0,19,0,0,33,0,0,0,0,0,26,46,0,0,0,50,1,1,0,48,0,42,43,0,0,0,0,0,16,0,49,3,0,0,0,0,0,0,0,43,0,0,0,0,32,17,0,36,0,32,50,26,0,48,0,0,0,31,0,0,0,17,32,0,0,0,0,36,46,1,0,0,0,0,1,0,0,0,33,0,0,0,4,20,0,0,0,33,0,42,31,3,49,0,0,0,36,0,50,49,1,41,0,0,41,49,0,1,32,34,1,0,0,40,20,0,0,0,0,0,32,44,0,0,0,0,0,0,0,0,0,0,0,0,33,40,0,20,0,0,0,31,0,0,49,36,0,0,26,1,0,18,0,39,0,1,1,39,0,36,1,1,0,0,0,0,33,1,0,0,0,0,0,0,0,3,0,33,0,36,0,0,0,0,0,0,0,0,0,0,0,0,0,0,0,0,0,0,0,0,0,0,0,0,0,0,0,0,0,0,0,0,0,0,0,0,0,0,0,0,0,0,0,0,0,0,0,0,0,0,0,0,0,0,0,0,0,0,0,0,0,0,0,0,0,0,0,0,0,0,0,0,0,0,0,0,0,0,0,0,0,0,0,0,0,0,0,0,0,0,0,0,0,0,0,0,0,0,0,0,0,0,0,0,0,0,0,0,0,0,0,0,0,0,0,0,0,0,0,0,0,0,0,0,0,0,0,0,0,0,0,0,0,0,0,0,0,0,0,0,0,0,0,0,0,0,0,0,0,0,0,0,0,0,0,0,0,0,0,0,0,0,0,0,0,0,0,0,0,0,0,0,0,0,0,0,0,0,0,0,0,0,0,0,0,0,0,0,0,0],"split_type":[0,0,0,0,0,0,0,0,0,0,0,0,0,0,0,0,0,0,0,0,0,0,0,0,0,0,0,0,0,0,0,0,0,0,0,0,0,0,0,0,0,0,0,0,0,0,0,0,0,0,0,0,0,0,0,0,0,0,0,0,0,0,0,0,0,0,0,0,0,0,0,0,0,0,0,0,0,0,0,0,0,0,0,0,0,0,0,0,0,0,0,0,0,0,0,0,0,0,0,0,0,0,0,0,0,0,0,0,0,0,0,0,0,0,0,0,0,0,0,0,0,0,0,0,0,0,0,0,0,0,0,0,0,0,0,0,0,0,0,0,0,0,0,0,0,0,0,0,0,0,0,0,0,0,0,0,0,0,0,0,0,0,0,0,0,0,0,0,0,0,0,0,0,0,0,0,0,0,0,0,0,0,0,0,0,0,0,0,0,0,0,0,0,0,0,0,0,0,0,0,0,0,0,0,0,0,0,0,0,0,0,0,0,0,0,0,0,0,0,0,0,0,0,0,0,0,0,0,0,0,0,0,0,0,0,0,0,0,0,0,0,0,0,0,0,0,0,0,0,0,0,0,0,0,0,0,0,0,0,0,0,0,0,0,0,0,0,0,0,0,0,0,0,0,0,0,0,0,0,0,0,0,0,0,0,0,0,0,0,0,0,0,0,0,0,0,0,0,0,0,0,0,0,0,0,0,0,0,0,0,0,0,0,0,0,0,0,0,0,0,0,0,0,0,0,0,0,0,0,0,0,0,0,0,0,0,0,0,0,0,0,0,0,0,0,0,0,0,0,0,0,0,0,0,0,0,0,0,0,0,0,0,0,0,0,0,0,0,0,0,0,0,0,0,0,0,0,0,0,0,0,0,0,0,0,0,0,0,0,0,0,0,0,0,0,0,0,0,0,0,0,0,0,0,0,0,0,0,0,0,0,0,0,0,0,0,0,0,0,0,0,0,0,0,0,0,0,0,0,0,0,0,0,0,0,0,0,0,0,0,0,0,0,0,0,0,0,0,0,0,0,0,0,0,0,0,0,0,0,0,0,0,0,0,0,0,0,0,0,0,0,0,0,0,0,0,0,0,0,0,0,0,0,0,0,0,0,0,0,0,0,0,0,0,0,0,0,0,0,0,0,0,0,0,0,0,0,0,0,0,0,0,0,0,0,0,0,0,0,0,0,0,0,0,0,0,0,0,0,0,0,0,0,0,0,0,0,0,0,0,0,0,0,0,0,0,0,0,0,0,0,0,0,0,0,0,0,0,0,0,0,0,0,0,0,0,0,0,0,0,0,0,0,0,0,0,0,0,0,0,0,0,0,0,0,0,0,0,0,0,0,0,0,0,0,0,0,0,0,0,0,0,0,0,0,0,0,0,0,0,0,0,0,0,0,0,0,0,0,0,0,0,0,0,0,0,0,0,0,0,0,0,0,0,0,0,0,0,0],"sum_hessian":[3.874E3,2.94E3,9.34E2,2.766E3,1.74E2,3.13E2,6.21E2,1.397E3,1.369E3,9.7E1,7.7E1,2.5E2,6.3E1,3.23E2,2.98E2,4.45E2,9.52E2,2.1E2,1.159E3,7.3E1,2.4E1,7E0,7E1,1.4E2,1.1E2,5.8E1,5E0,2.25E2,9.8E1,1.57E2,1.41E2,1.96E2,2.49E2,6.96E2,2.56E2,1.07E2,1.03E2,4.94E2,6.65E2,2.5E1,4.8E1,1.1E1,1.3E1,6E0,1E0,5.3E1,1.7E1,3.3E1,1.07E2,6.5E1,4.5E1,2.8E1,3E1,1E0,4E0,8.9E1,1.36E2,9.1E1,7E0,3.8E1,1.19E2,1.04E2,3.7E1,1.8E1,1.78E2,8.4E1,1.65E2,2.19E2,4.77E2,2E1,2.36E2,1.01E2,6E0,4E0,9.9E1,2.07E2,2.87E2,3.14E2,3.51E2,1.9E1,6E0,5E0,4.3E1,7E0,4E0,2E0,1.1E1,1E0,1.6E1,1.8E1,1.5E1,3E0,1.04E2,4.7E1,1.8E1,3E0,4.2E1,4E0,2.4E1,1E0,2.9E1,2.4E1,6.5E1,5E0,1.31E2,4E0,8.7E1,6E0,1E0,6.5E1,5.4E1,3E0,1.01E2,2.3E1,1.4E1,2E0,1.6E1,2E0,1.76E2,2.3E1,6.1E1,2.6E1,1.39E2,2.11E2,8E0,3.3E1,4.44E2,4E0,2.32E2,2.4E1,7.7E1,1E0,5E0,3E0,1E0,4E1,5.9E1,1.1E1,1.96E2,2.32E2,5.5E1,2.8E2,3.4E1,1.16E2,2.35E2,9E0,1E1,1E0,4E0,1.4E1,2.9E1,3E0,8E0,1.5E1,3E0,1E1,5E0,2E0,1E0,5E1,5.4E1,4.3E1,4E0,7E0,1.1E1,1.4E1,2.8E1,1E0,2.3E1,1E0,2.8E1,2.3E1,1E0,4E0,6.1E1,4E0,1E0,1.1E2,2.1E1,3.8E1,4.9E1,8E0,5.7E1,4.2E1,1.2E1,1E0,2E0,7.9E1,2.2E1,7E0,1.6E1,1.1E1,3E0,8E0,8E0,9.8E1,7.8E1,8E0,1.5E1,1.8E1,4.3E1,2.3E1,3E0,7.2E1,6.7E1,4E1,1.71E2,1.8E1,1.5E1,5.9E1,3.85E2,1E0,3E0,5E0,2.27E2,1.3E1,1.1E1,5E0,7.2E1,1E0,4E0,1E0,2E0,1.2E1,2.8E1,4E1,1.9E1,1E0,1E1,8E0,1.88E2,1.42E2,9E1,6E0,4.9E1,2.51E2,2.9E1,1.7E1,1.7E1,1.03E2,1.3E1,1.5E1,2.2E2,7E0,2E0,3E0,1E0,3E0,1.1E1,1E0,2.8E1,6E0,2E0,2E0,1E0,2E0,3E0,4.9E1,1E0,6E0,3.7E1,2E0,2E0,1E0,6E0,2E0,9E0,7E0,7E0,1E0,2.7E1,1E0,2.7E1,5E0,1.8E1,2E0,2E0,1E0,6E1,3E1,8E1,3E0,1.8E1,1E0,3.7E1,8E0,4.1E1,2E0,6E0,1E0,5.6E1,6E0,3.6E1,1E0,1.1E1,1E0,1E0,5.9E1,2E1,8E0,1.4E1,3E0,1.3E1,5E0,6E0,1E0,2E0,2E0,6E0,3E0,5E0,6E0,9.2E1,1.5E1,6.3E1,1E0,1.4E1,1E0,1.7E1,1.4E1,2.9E1,4E0,1.9E1,2E0,7E1,2.8E1,3.9E1,3.9E1,1E0,2E0,1.69E2,1.3E1,5E0,7E0,8E0,3.5E1,2.4E1,2.22E2,1.63E2,1E0,2E0,2E0,3E0,1.6E1,2.11E2,5E0,8E0,8E0,3E0,2E0,3E0,2.4E1,4.8E1,3E0,9E0,1E0,2.7E1,5E0,3.5E1,1.7E1,2E0,9E0,1E0,2E0,6E0,2.8E1,1.6E2,1.9E1,1.23E2,1.3E1,7.7E1,2E0,4E0,1E1,3.9E1,6E0,2.45E2,6E0,2.3E1,7E0,1E1,5E0,1.2E1,5E1,5.3E1,3E0,1E1,2E0,1.3E1,1E1,2.1E2,1E0,1E0,2E0,1E0,1E0,5E0,1E0,1E0,2E0,1E0,1.6E1,3.3E1,9E0,2.8E1,1E0,8E0,6E0,1E0,5E0,2.2E1,2E0,3E0,9E0,9E0,1E0,1E0,4.8E1,1.2E1,1E0,2.9E1,4E0,7.6E1,4E0,1.4E1,1.2E1,2.5E1,1E0,7E0,2.6E1,1.5E1,1E0,1E0,5E0,1E0,1.6E1,4E1,2E0,4E0,2.9E1,7E0,5E0,5.4E1,6E0,1.4E1,2E0,6E0,2E0,1.2E1,1E0,5E0,2E0,4E0,2E0,1E0,4E0,1E0,4E0,2E0,6E0,8.6E1,7E0,8E0,1E1,5.3E1,5E0,9E0,5E0,1.2E1,2E0,1.2E1,6E0,2.3E1,3E0,1E0,1.2E1,7E0,3.4E1,3.6E1,1.1E1,1.7E1,2E0,3.7E1,3.6E1,3E0,1.4E1,1.55E2,4E0,9E0,3E0,2E0,1E0,6E0,9E0,2.6E1,4E0,2E1,4.3E1,1.79E2,1.44E2,1.9E1,1E0,2E0,1.2E1,4E0,4.7E1,1.64E2,2E0,3E0,2E0,6E0,1E0,7E0,2E0,1E0,1E0,1E0,1.4E1,1E1,5E0,4.3E1,2E0,1E0,6E0,3E0,6E0,2.1E1,4E0,1E0,1.2E1,2.3E1,2E0,1.5E1,1E0,1E0,2E0,7E0,2E0,4E0,8E0,2E1,4E1,1.2E2,2E0,1.7E1,1.4E1,1.09E2,2E0,1.1E1,4E0,7.3E1,1E0,9E0,2E0,3.7E1,2.41E2,4E0,5E0,1E0,1E0,2.2E1,4E0,3E0,3E0,2E0,1E0,1.1E1,1E0,4.9E1,1.2E1,4.1E1,2E0,1E0,1E0,9E0,6E0,7E0,4E0,6E0,6.1E1,1.49E2,1E0,8E0,4E0,2.4E1,1E0,7E0,4E0,1E0,6E0,1.6E1,1E0,1E0,2E0,7E0,3E0,6E0,1E0,4.7E1,6E0,6E0,1E0,2.8E1,3E0,1E0,4E0,7.2E1,1E0,3E0,6E0,8E0,6E0,6E0,2E0,2.3E1,3E0,4E0,6E0,2E1,9E0,6E0,4E0,1.2E1,3.9E1,1E0,2.7E1,2.7E1,4E0,2E0,1E0,1.3E1,1E0,1E0,3E0,3E0,1E0,1E0,1E0,1.1E1],"tree_param":{"num_deleted":"0","num_feature":"51","num_nodes":"639","size_leaf_vector":"1"}},{"base_weights":[1.078957E-2,-9.267813E0,2.91962E1,-6.9963927E0,-4.287408E1,5.07822E1,1.8252148E1,-1.4243455E1,4.098778E-1,-2.9022022E1,-6.086528E1,4.305575E1,8.029089E1,6.1732154E0,3.127998E1,-1.0598484E0,-1.7397663E1,1.6161766E1,-2.4705887E0,-3.495028E1,-1.0162362E1,-2.1925144E1,-6.429892E1,5.4824516E1,2.7718357E1,8.3848076E1,3.193007E1,1.5035785E1,-5.435904E0,4.063834E1,2.0646875E1,-9.0243E0,5.8682942E0,-1.3224386E1,-2.8121006E1,2.0621593E1,1.1375007E1,-9.25626E0,2.604437E0,-1.6270153E1,-3.649745E1,-1.6777472E1,-4.565882E0,-1.2842607E0,1.0988369E-1,-3.466581E0,-4.5069466E1,2.7524492E1,6.291133E1,2.0425076E1,3.758006E1,9.800368E1,6.790096E1,-9.3580383E-1,2.2901256E0,2.4301428E1,8.2905035E0,-2.4934638E0,-3.421582E1,5.2172134E1,3.1573107E1,1.6379631E1,3.1894606E1,1.0857663E0,-9.950594E0,2.2414003E1,2.8854399E0,-1.9094276E1,-1.0356479E1,-5.6403824E1,-2.5585863E1,1.8136267E1,5.3890408E1,-1.340484E1,1.2500249E1,-2.9831815E0,-1.37703495E1,-3.792478E0,8.299389E0,-6.695032E0,-2.067622E1,-2.752767E1,-4.135889E1,-5.008391E-1,-1.211954E0,3.1533253E-1,-6.5695763E0,-8.122964E-1,-2.382852E0,3.736281E1,1.412121E1,2.0749016E0,6.462975E1,2.4308176E1,9.540129E0,3.146388E0,3.434818E1,2.58263E0,5.1676874E0,-3.2710075E-2,7.020795E1,1.1854385E0,2.5551819E1,4.344764E1,6.1620245E0,3.0507636E0,-1.0250275E1,5.974617E-1,-4.3695763E1,2.3751572E1,5.724011E1,2.1914682E1,4.5720295E1,-1.5003021E1,1.7449738E1,4.2910103E1,1.21435E1,-1.4426807E1,-5.458536E0,1.3346358E-1,2.5391106E1,7.623796E0,-2.1332524E0,-1.8228386E1,-2.084936E0,2.4516442E0,-1.126361E1,-2.0992043E0,-3.236738E0,-1.7804047E1,-3.0038599E1,8.604267E0,2.0958878E1,7.1445084E0,1.52420845E1,-1.5240669E1,-1.5153809E-1,7.825336E0,1.5486435E1,-2.2037683E1,-1.8073581E0,-1.0859545E1,-2.55835E1,-1.5208868E0,-2.1727047E1,1.3143305E1,5.8730326E0,-5.3543496E-1,1.3364926E-1,-1.2521431E0,-8.02412E-2,-2.941621E1,-8.694971E-1,-1.7832069E-1,-4.211947E1,-5.5733824E-1,-4.30791E0,2.008108E0,1.682473E1,1.5582293E0,-1.9478512E1,4.8744455E-2,1.3437347E-1,5.747565E1,3.5044236E0,2.584915E1,5.8859835E0,1.945608E1,2.1344845E0,4.2735786E1,2.8825338E1,1.0271666E0,7.121213E1,-2.7735164E0,2.3746236E-1,2.9669779E1,1.6458542E1,2.382286E0,5.614306E-1,9.0561905E0,-9.011768E0,-2.150055E0,4.8765044E0,8.4321386E-1,-1.2756724E1,-3.2122764E-1,-4.6780426E1,1.3676982E0,-3.968689E-1,2.9495105E-1,5.8051575E1,-2.2890896E-1,2.5610048E1,3.976576E1,3.0795228E0,-1.2922882E0,-2.7735188E0,2.010658E1,7.4498644E0,1.1565365E0,2.4846961E0,1.760931E1,-7.2898026E0,-3.775689E0,-1.619766E1,2.218271E0,-9.928157E0,8.6118124E-2,2.661035E1,1.4779954E-1,1.1018618E1,-1.3494414E1,6.360916E-1,-1.2138515E1,-1.9864676E1,-1.5431373E0,7.2421603E0,-8.046057E0,-1.6657232E1,-2.2817541E1,-1.3088662E1,-2.5240173E0,-3.0639349E1,5.8526177E-2,1.7857275E1,-2.6176784E0,2.260957E1,8.6118124E-2,8.8007784E-1,-1.5153809E-1,-9.150192E-1,8.917471E-1,1.0663657E1,1.9110329E1,7.283131E0,1.48212435E-2,-2.4095005E1,1.0731968E1,-2.3949063E0,-1.3508893E1,-6.529363E0,-5.514879E1,-2.093269E1,1.9361863E-1,-1.7466608E1,-7.3160796E0,-3.4930954E1,1.66807E1,1.0210723E1,-9.437849E0,6.9598556E0,-1.615836E0,-1.2511026E1,-1.5972106E0,-4.614229E1,-6.376457E0,-2.7351475E0,9.850179E-1,2.0494615E-1,-4.3016644E1,3.044714E0,5.3690628E1,6.1681724E0,5.737478E-1,2.7816786E1,7.3583275E-1,-2.4533413E-1,-2.9413185E-1,1.1958137E0,9.382958E-1,-3.068393E0,2.5381606E0,2.936639E1,3.869419E-1,2.930204E1,1.045637E0,3.6130826E0,-1.7530365E-1,-3.2710075E-2,1.0294721E1,1.5581617E0,-1.0400696E-1,1.731766E1,1.7594233E1,5.329654E0,1.5833184E1,-2.0683264E1,1.6973936E1,2.261293E0,-2.2759186E1,-1.0309608E1,-2.5071437E0,-4.1296005E-1,5.8646893E1,6.327276E-1,-2.8757265E1,1.20302305E1,3.8603349E0,2.7499561E1,4.069245E1,3.4545842E-1,1.48212435E-2,-2.2283517E-1,2.2556171E1,1.2150293E1,-9.705929E-1,1.2005481E1,5.535063E-1,2.069871E1,-1.0400696E-1,-4.1664886E-1,2.0631409E-1,-6.266967E0,2.2530212E0,-1.698075E1,-4.3811255E0,6.469984E0,-1.4793682E0,-8.665424E0,6.973601E-1,3.0407928E1,-5.986891E0,4.383524E0,4.1972575E0,1.406201E1,-1.6641125E1,-1.5203562E-1,-6.172947E0,5.779635E0,-1.2418881E1,-2.9522934E0,-4.233383E0,-2.049067E1,5.252185E-1,-6.8015633E0,4.3726864E0,8.813523E0,8.947523E-1,-8.511674E0,-3.3408704E0,-1.8842514E1,-1.3329418E1,-2.4806608E1,2.971625E0,-1.4659852E1,-2.920563E-1,8.17215E-2,3.512647E0,-3.1045092E1,-6.999125E0,4.757124E0,2.0252304E1,8.004141E0,-8.722687E-1,-1.6361581E-1,1.5659453E1,2.5694128E1,-7.2857533E0,4.0735726E0,-3.4166318E-1,1.1532592E1,4.9882206E-1,2.136747E1,8.186488E-1,5.3635387E0,-2.5613165E1,-2.2283517E-1,1.0940365E0,4.4207892E0,2.638573E0,-3.2866826E0,-7.1326284E0,-1.442838E1,-1.9278212E1,-4.126594E0,-6.969821E-1,-3.4422262E0,-4.2615337E0,-2.499394E1,1.0256456E0,-3.8535976E-1,-2.6973116E1,-1.3466029E1,2.544012E-1,-6.078393E-1,6.549403E-1,-4.8668217E1,-1.0400696E-1,1.7097519E1,1.1513697E1,4.012929E0,-1.724871E0,-3.393809E0,1.2345737E1,4.768271E0,-1.0897348E0,9.4298553E-1,-6.588177E-1,-2.3412344E0,-3.7449774E-1,-7.5899124E-2,-1.4386019E0,-2.9527417E-1,-5.793194E-1,-2.6469288E0,9.694438E-1,-1.1496943E0,3.3488922E0,2.2733943E0,1.628774E1,3.0833118E1,5.614306E-1,-5.9045725E0,1.6263136E0,1.8118058E-1,1.7426348E1,3.1126047E1,1.4804764E0,-1.9363632E0,9.699676E0,1.9318117E1,-3.178974E-1,1.8806637E1,-1.6795004E1,7.145062E0,2.1352877E1,-2.9413185E-1,-2.6533327E0,-3.9925063E0,4.9851494E0,1.1921892E0,1.844052E1,8.275443E-1,3.8587E-2,-2.579702E1,-6.6183257E0,-1.5894297E1,5.199692E1,3.5803196E0,-2.2191474E0,6.2352564E-2,7.1266687E-1,-3.2710075E-2,-4.604914E-1,4.715166E-1,1.5598384E0,2.0425999E1,2.1897202E0,1.1009783E0,2.4652855E0,1.9227926E1,-3.7244123E-1,1.4605402E1,7.0496087E0,-4.269166E0,-4.3578925E0,1.4858146E1,3.086296E-1,1.1045482E0,6.4069115E-2,-4.4983235E-1,3.4488298E-2,1.344883E-1,-1.3562417E0,-7.4904954E-1,-1.2668685E0,3.8130444E-2,-2.2137871E-1,4.2435572E-1,-2.1032123E-1,-5.133472E-1,8.743436E-1,1.7103817E0,-3.594101E-1,-1.794101E-1,-1.2777252E-1,2.587363E-1,8.448512E-1,4.7183815E-2,1.8807887E-1,8.2401925E-1,-1.1400943E0,-3.5760698E-1,-1.0396116E0,-1.8357036E-1,-1.7726827E-2,6.188643E-1,-1.2056046E-1,-6.2797785E-1,-2.3624325E-1,1.48212435E-2,3.6202976E-1,-4.273017E-1,3.6205494E-1,-1.0409483E0,2.0531343E-1,-5.0532695E-2,-5.5021733E-1,5.3466797E-2,1.3993047E-1,3.0316392E-1,3.2981683E-2,4.8231092E-1,-2.6060933E-2,-4.734908E-1,-2.863553E-1,2.3179965E-1,-8.5109246E-1,-1.5872676E0,-1.9933091E-1,-7.4813193E-1,-1.4919244E-1,-1.2638792E0,-4.3446407E-1,3.5208315E-1,-8.1099415E-1,-1.0455481E-1,-8.02412E-2,3.4368974E-1,-8.3660233E-1,-1.6085892E0,-8.0600053E-1,7.9566E-2,5.800919E-1,5.7204332E-2,2.0494615E-1,1.0879556E0,1.7516607E-1,5.37665E-1,-8.944511E-3,-5.647564E-2,3.6878183E-1,1.276599E0,3.8357252E-1,1.3783904E0,-4.3222275E-1,-8.02412E-2,3.7784696E-1,-1.5203562E-1,1.6190414E-1,6.823773E-1,5.748269E-1,1.3357601E0,-2.8365073E-1,3.5488355E-1,-5.1009345E-1,-1.4095377E0,-1.8303782E-1,4.1927797E-1,-7.614543E-2,2.1482094E-1,-3.8736627E-1,-8.7403126E-2,3.8513185E-3,-3.9689904E-1,-1.1065758E0,-6.6233927E-1,-2.0986488E0,-5.999001E-1,9.814539E-1,-2.8485832E-1,-1.6220601E-2,-3.7442E-1,-1.1722819E-2,-1.314545E0,4.3750606E-3,-1.159738E0,-1.4991534E0,-2.2283517E-1,6.2352564E-2,-7.132018E-1,2.9946992E-1,-3.4889728E-1,-1.17295645E-1,2.2188823E-1,-1.4050663E0,-2.9004931E0,1.0974834E0,7.3997384E-1,3.6812884E-1,6.262216E-1,-1.363154E-1,2.7430457E-1,-2.2751318E-1,-7.936587E-2,-2.3548077E-1,6.491068E-1,4.5233312E-1,8.403605E-2,-1.03231624E-1,1.7395554E-1,1.3364926E-1,-1.284682E-1,1.8118058E-1,8.646122E-1,6.2203E-1,1.6639149E0,5.37665E-1,-4.6654844E-1,9.445898E-1,2.5247747E-1,9.376176E-1,1.7195076E0,1.2608376E-1,-3.8276196E-1,-3.3295949E-3,6.809751E-1,1.1072973E0,3.7682852E-1,-8.02412E-2,9.861992E-1,-9.858015E-1,-1.2777252E-1,-6.221301E-1,4.4132096E-1,1.1796736E0,3.0976257E-1,3.950543E-1,-7.543799E-1,3.7206727E-1,9.483576E-2,2.0519124E-1,1.0499369E0,-1.0783976E0,7.994164E-2,-6.615593E-1,-1.5345142E0,-8.0002445E-1,-1.58789E-1,-1.0733951E0,-2.830695E-1,2.9168925E0,1.6169968E0,4.3770996E-1,1.1567749E0,1.1257738E0,7.626834E-1,1.1423677E-1,9.421223E-1,1.0988369E-1,4.1883698E-1,-4.0679762E-1,3.3245564E-2,8.6118124E-2,-4.1296005E-1,-1.7530365E-1,8.340335E-1],"categories":[],"categories_nodes":[],"categories_segments":[],"categories_sizes":[],"default_left":[0,0,0,0,0,0,0,0,0,0,0,0,0,0,0,0,0,0,0,0,0,0,0,0,0,0,0,0,0,0,0,0,0,0,0,0,0,0,0,0,0,0,0,0,0,0,0,0,0,0,0,0,0,0,0,0,0,0,0,0,0,0,0,0,0,0,0,0,0,0,0,0,0,0,0,0,0,0,0,0,0,0,0,0,0,0,0,0,0,0,0,0,0,0,0,0,0,0,0,0,0,0,0,0,0,0,0,0,0,0,0,0,0,0,0,0,0,0,0,0,0,0,0,0,0,0,0,0,0,0,0,0,0,0,0,0,0,0,0,0,0,0,0,0,0,0,0,0,0,0,0,0,0,0,0,0,0,0,0,0,0,0,0,0,0,0,0,0,0,0,0,0,0,0,0,0,0,0,0,0,0,0,0,0,0,0,0,0,0,0,0,0,0,0,0,0,0,0,0,0,0,0,0,0,0,0,0,0,0,0,0,0,0,0,0,0,0,0,0,0,0,0,0,0,0,0,0,0,0,0,0,0,0,0,0,0,0,0,0,0,0,0,0,0,0,0,0,0,0,0,0,0,0,0,0,0,0,0,0,0,0,0,0,0,0,0,0,0,0,0,0,0,0,0,0,0,0,0,0,0,0,0,0,0,0,0,0,0,0,0,0,0,0,0,0,0,0,0,0,0,0,0,0,0,0,0,0,0,0,0,0,0,0,0,0,0,0,0,0,0,0,0,0,0,0,0,0,0,0,0,0,0,0,0,0,0,0,0,0,0,0,0,0,0,0,0,0,0,0,0,0,0,0,0,0,0,0,0,0,0,0,0,0,0,0,0,0,0,0,0,0,0,0,0,0,0,0,0,0,0,0,0,0,0,0,0,0,0,0,0,0,0,0,0,0,0,0,0,0,0,0,0,0,0,0,0,0,0,0,0,0,0,0,0,0,0,0,0,0,0,0,0,0,0,0,0,0,0,0,0,0,0,0,0,0,0,0,0,0,0,0,0,0,0,0,0,0,0,0,0,0,0,0,0,0,0,0,0,0,0,0,0,0,0,0,0,0,0,0,0,0,0,0,0,0,0,0,0,0,0,0,0,0,0,0,0,0,0,0,0,0,0,0,0,0,0,0,0,0,0,0,0,0,0,0,0,0,0,0,0,0,0,0,0,0,0,0,0,0,0,0,0,0,0,0,0,0,0,0,0,0,0,0,0,0,0,0,0,0,0,0,0,0,0,0,0,0,0,0,0,0,0,0,0,0,0,0,0,0,0,0,0,0,0,0,0,0,0,0,0,0,0,0,0,0,0,0,0,0,0,0,0,0,0,0,0,0,0,0,0,0,0,0,0,0,0,0,0,0,0,0,0,0,0,0,0,0,0,0,0,0,0,0,0,0,0,0,0,0,0,0,0,0,0,0,0,0,0,0,0,0,0,0,0,0,0,0,0,0,0,0,0,0,0,0,0,0],"id":2,"left_children":[1,3,5,7,9,11,13,15,17,19,21,23,25,27,29,31,33,35,37,39,41,43,45,47,49,51,53,55,57,59,61,63,65,67,69,71,73,75,77,79,81,83,85,-1,-1,-1,87,89,91,93,95,97,99,-1,-1,101,103,105,107,109,111,113,115,-1,117,119,121,123,125,127,129,131,133,135,137,139,141,143,145,147,149,151,153,-1,-1,-1,155,-1,-1,157,159,161,163,165,167,-1,169,-1,-1,-1,171,173,175,177,179,181,183,-1,185,187,189,191,193,195,197,199,201,203,205,-1,207,209,211,213,-1,215,217,-1,-1,219,221,223,225,-1,227,229,-1,231,233,235,237,239,241,243,245,247,249,-1,-1,-1,-1,251,-1,-1,253,-1,255,-1,257,-1,259,-1,-1,261,-1,263,265,267,269,271,273,-1,275,277,-1,279,281,-1,-1,283,285,-1,287,-1,289,-1,291,-1,-1,-1,293,295,297,299,-1,-1,301,303,305,-1,-1,307,309,311,313,315,317,-1,319,321,323,325,327,329,331,333,335,337,339,341,343,345,347,349,351,353,355,-1,-1,-1,-1,357,359,361,363,-1,365,367,369,371,373,375,377,379,381,383,385,387,389,391,393,-1,395,-1,397,399,401,-1,-1,403,405,407,-1,-1,409,-1,-1,-1,-1,-1,411,-1,413,-1,415,-1,-1,-1,-1,417,-1,-1,419,421,423,425,427,429,431,433,435,-1,-1,437,-1,439,441,443,445,447,-1,-1,-1,449,451,453,455,-1,457,-1,-1,-1,459,461,463,465,467,-1,469,-1,471,473,475,477,479,481,-1,483,485,487,489,491,493,495,497,499,501,-1,503,505,507,509,511,513,515,-1,-1,517,519,521,523,525,527,529,-1,531,533,535,537,-1,539,-1,541,-1,543,545,-1,-1,547,549,551,553,555,557,559,-1,-1,561,563,-1,565,567,569,571,-1,573,575,-1,577,579,581,-1,583,585,587,-1,589,-1,-1,-1,-1,591,-1,-1,-1,-1,-1,-1,-1,593,595,-1,597,-1,-1,599,601,-1,603,605,607,-1,609,611,613,615,-1,-1,617,619,-1,621,623,-1,625,627,629,631,-1,-1,-1,-1,-1,-1,-1,-1,633,-1,-1,-1,635,-1,637,639,641,643,645,-1,-1,-1,-1,-1,-1,-1,-1,-1,-1,-1,-1,-1,-1,-1,-1,-1,-1,-1,-1,-1,-1,-1,-1,-1,-1,-1,-1,-1,-1,-1,-1,-1,-1,-1,-1,-1,-1,-1,-1,-1,-1,-1,-1,-1,-1,-1,-1,-1,-1,-1,-1,-1,-1,-1,-1,-1,-1,-1,-1,-1,-1,-1,-1,-1,-1,-1,-1,-1,-1,-1,-1,-1,-1,-1,-1,-1,-1,-1,-1,-1,-1,-1,-1,-1,-1,-1,-1,-1,-1,-1,-1,-1,-1,-1,-1,-1,-1,-1,-1,-1,-1,-1,-1,-1,-1,-1,-1,-1,-1,-1,-1,-1,-1,-1,-1,-1,-1,-1,-1,-1,-1,-1,-1,-1,-1,-1,-1,-1,-1,-1,-1,-1,-1,-1,-1,-1,-1,-1,-1,-1,-1,-1,-1,-1,-1,-1,-1,-1,-1,-1,-1,-1,-1,-1,-1,-1,-1,-1,-1,-1,-1,-1,-1,-1,-1,-1,-1,-1,-1,-1,-1,-1,-1,-1,-1,-1,-1,-1,-1,-1,-1,-1,-1,-1,-1,-1,-1,-1,-1],"loss_changes":[1.0496198E6,2.2419814E5,2.19956E5,1.4793055E5,4.4587562E4,6.8134125E4,9.7686266E4,5.7907844E4,6.192841E4,1.1607953E4,9.286781E3,4.3786406E4,8.3325625E3,3.3417E4,2.8913969E4,1.4951248E4,4.9928812E4,4.269879E3,3.9764934E4,1.7471875E3,9.229719E2,7.820762E2,3.9399062E3,2.9397E4,7.216008E3,6.6641875E3,5.0727583E3,1.1298414E4,1.1855016E4,1.4872672E4,6.293129E3,3.8037969E3,7.0915747E3,1.3454875E4,2.1070969E4,7.9524883E3,3.0674307E3,1.3947637E4,2.4111785E4,1.990813E2,2.088336E3,3.625498E2,3.899957E2,0E0,0E0,0E0,5.682617E2,3.9558262E3,1.1156531E4,2.5577441E3,1.6069023E3,1.8529688E3,4.94875E3,0E0,0E0,2.1953203E3,7.8140464E3,5.578984E3,6.2114775E3,8.434828E3,1.143225E4,3.787996E3,7.7465195E3,0E0,2.394463E3,1.2254287E3,2.965027E3,4.426742E3,6.3830156E3,2.8542188E2,9.5138125E3,2.5639883E3,2.1899895E4,4.90343E1,1.2748301E3,4.620354E3,9.590895E3,1.267784E4,4.0363809E3,1.790246E2,3.7620044E2,4.367383E1,1.1720156E3,0E0,0E0,0E0,9.690979E1,0E0,0E0,4.166504E2,9.769483E3,7.5344086E-2,7.2125E1,1.2104805E3,1.3537174E3,0E0,7.6002734E2,0E0,0E0,0E0,3.3234375E1,8.37169E1,2.2452188E3,2.765537E2,4.6049062E3,6.5996807E3,3.8850415E3,0E0,9.641172E2,1.5869907E3,2.0322344E3,4.5882695E3,9.5278906E2,4.5872174E2,2.5601523E3,2.0708516E3,1.7216494E3,1.0893984E3,2.1837053E3,0E0,5.0246875E2,1.6226704E3,1.9278247E3,2.3198281E3,0E0,7.192471E2,8.734008E3,0E0,0E0,2.2545273E3,2.9475469E3,1.9757998E3,3.0947578E3,0E0,1.610802E2,9.397125E1,0E0,7.9736035E2,1.6444912E3,5.585239E2,1.4770911E3,2.573334E3,6.5457266E3,7.603632E3,6.4042812E3,1.0330273E3,3.9761372E3,0E0,0E0,0E0,0E0,7.23459E2,0E0,0E0,3.6801562E2,0E0,1.8346115E1,0E0,6.562854E1,0E0,3.311901E3,0E0,0E0,6.0952656E3,0E0,9.252656E2,5.487423E2,1.0448154E3,1.0959568E3,1.1909375E2,6.474414E1,0E0,1.9734375E1,2.3638763E0,0E0,1.0970391E3,4.341963E2,0E0,0E0,2.674336E3,5.2571035E3,0E0,2.3027803E3,0E0,9.892207E2,0E0,8.811172E2,0E0,0E0,0E0,7.712969E2,3.4935544E3,1.8664668E3,6.0183984E2,0E0,0E0,1.682292E1,1.2851055E3,8.9394116E2,0E0,0E0,1.328833E1,4.4046173E0,2.2271933E2,7.895801E2,7.0175555E2,7.365857E2,0E0,4.4150195E2,5.719257E2,8.544209E2,3.4413623E2,1.7868068E3,1.10140625E2,1.8800625E3,2.3197453E2,3.811389E1,4.0416309E3,5.466051E3,6.3183984E2,1.5071221E3,7.8517006E1,2.5894375E3,4.9755063E2,1.2108032E2,4.0013275E0,1.1626172E3,0E0,0E0,0E0,0E0,3.6793097E2,5.197124E2,6.321045E2,2.611588E2,0E0,2.1380469E2,5.3652625E2,8.5704346E2,7.354824E2,2.6773755E3,2.9910605E3,3.2787773E3,2.9725417E3,6.636299E2,6.627291E2,8.831225E3,4.3437988E2,4.867837E2,2.3062993E3,2.5379277E3,0E0,6.450651E2,0E0,5.790625E1,1.0269974E1,2.438824E1,0E0,0E0,3.2218018E2,2.148142E3,2.4175156E3,0E0,0E0,8.192617E2,0E0,0E0,0E0,0E0,0E0,4.717888E2,0E0,5.3289014E2,0E0,6.4103516E1,0E0,0E0,0E0,0E0,1.2385399E3,0E0,0E0,1.7836719E2,8.746045E2,2.610248E3,8.447992E2,6.2741714E3,9.518301E2,1.4229504E3,6.6325635E2,7.606221E2,0E0,0E0,1.01659375E3,0E0,1.4618618E3,2.0671649E2,4.508556E2,5.1348047E2,6.574922E2,0E0,0E0,0E0,4.3936934E3,1.1192705E3,2.6819296E2,7.649385E2,0E0,5.209717E0,0E0,0E0,0E0,1.7636478E2,1.9292164E-1,6.079297E2,1.097256E3,3.6730426E2,0E0,2.3531885E2,0E0,4.0066406E1,1.4144897E-1,8.459544E1,6.038506E2,6.853174E2,3.6305225E2,0E0,7.282191E2,1.1780508E3,4.7146484E1,1.8676323E1,5.072277E2,1.9078672E3,9.215058E1,2.1024545E2,4.320236E0,6.153412E1,0E0,2.4220156E3,5.595216E2,3.2887852E3,1.0819714E2,3.4597266E2,3.459489E2,1.0052871E3,0E0,0E0,6.263295E1,2.3160781E3,4.957669E2,2.0929832E2,1.2987134E2,1.1821625E1,3.330438E-1,0E0,1.8562402E3,1.4431836E3,1.7001938E1,2.707951E2,0E0,4.469983E2,0E0,1.3820557E3,0E0,3.847644E2,1.096416E2,0E0,0E0,2.5498775E2,2.066168E2,1.0914379E3,1.1673767E2,8.354746E2,1.8095249E3,2.9846997E3,0E0,0E0,1.3732088E2,1.2783164E3,0E0,2.6553054E3,3.407876E2,2.6435205E2,3.736136E2,0E0,7.852082E1,8.6751953E2,0E0,2.3267871E2,1.3435449E2,1.4402063E2,0E0,2.202504E1,7.449424E2,2.071935E3,0E0,3.0066172E1,0E0,0E0,0E0,0E0,3.9412453E1,0E0,0E0,0E0,0E0,0E0,0E0,0E0,6.455127E1,8.902129E2,0E0,6.14027E2,0E0,0E0,1.343042E1,2.8405273E2,0E0,1.212839E2,2.6888135E2,4.327876E2,0E0,4.9976367E2,1.5758716E2,2.0199868E3,2.3642822E1,0E0,0E0,1.3068529E3,3.1400696E1,0E0,9.7206665E1,1.0363401E3,0E0,8.583496E1,8.212461E2,7.9100854E2,3.0991094E3,0E0,0E0,0E0,0E0,0E0,0E0,0E0,0E0,3.667129E2,0E0,0E0,0E0,3.7516406E2,0E0,9.488103E2,9.081116E-1,1.3896286E2,8.538818E1,4.935835E2,0E0,0E0,0E0,0E0,0E0,0E0,0E0,0E0,0E0,0E0,0E0,0E0,0E0,0E0,0E0,0E0,0E0,0E0,0E0,0E0,0E0,0E0,0E0,0E0,0E0,0E0,0E0,0E0,0E0,0E0,0E0,0E0,0E0,0E0,0E0,0E0,0E0,0E0,0E0,0E0,0E0,0E0,0E0,0E0,0E0,0E0,0E0,0E0,0E0,0E0,0E0,0E0,0E0,0E0,0E0,0E0,0E0,0E0,0E0,0E0,0E0,0E0,0E0,0E0,0E0,0E0,0E0,0E0,0E0,0E0,0E0,0E0,0E0,0E0,0E0,0E0,0E0,0E0,0E0,0E0,0E0,0E0,0E0,0E0,0E0,0E0,0E0,0E0,0E0,0E0,0E0,0E0,0E0,0E0,0E0,0E0,0E0,0E0,0E0,0E0,0E0,0E0,0E0,0E0,0E0,0E0,0E0,0E0,0E0,0E0,0E0,0E0,0E0,0E0,0E0,0E0,0E0,0E0,0E0,0E0,0E0,0E0,0E0,0E0,0E0,0E0,0E0,0E0,0E0,0E0,0E0,0E0,0E0,0E0,0E0,0E0,0E0,0E0,0E0,0E0,0E0,0E0,0E0,0E0,0E0,0E0,0E0,0E0,0E0,0E0,0E0,0E0,0E0,0E0,0E0,0E0,0E0,0E0,0E0,0E0,0E0,0E0,0E0,0E0,0E0,0E0,0E0,0E0,0E0,0E0,0E0,0E0,0E0,0E0,0E0,0E0,0E0,0E0,0E0,0E0,0E0,0E0,0E0,0E0,0E0,0E0,0E0,0E0,0E0,0E0],"parents":[2147483647,0,0,1,1,2,2,3,3,4,4,5,5,6,6,7,7,8,8,9,9,10,10,11,11,12,12,13,13,14,14,15,15,16,16,17,17,18,18,19,19,20,20,21,21,22,22,23,23,24,24,25,25,26,26,27,27,28,28,29,29,30,30,31,31,32,32,33,33,34,34,35,35,36,36,37,37,38,38,39,39,40,40,41,41,42,42,46,46,47,47,48,48,49,49,50,50,51,51,52,52,55,55,56,56,57,57,58,58,59,59,60,60,61,61,62,62,64,64,65,65,66,66,67,67,68,68,69,69,70,70,71,71,72,72,73,73,74,74,75,75,76,76,77,77,78,78,79,79,80,80,81,81,82,82,86,86,89,89,90,90,91,91,92,92,93,93,94,94,96,96,100,100,101,101,102,102,103,103,104,104,105,105,106,106,108,108,109,109,110,110,111,111,112,112,113,113,114,114,115,115,116,116,117,117,118,118,120,120,121,121,122,122,123,123,125,125,126,126,129,129,130,130,131,131,132,132,134,134,135,135,137,137,138,138,139,139,140,140,141,141,142,142,143,143,144,144,145,145,146,146,151,151,154,154,156,156,158,158,160,160,163,163,165,165,166,166,167,167,168,168,169,169,170,170,172,172,173,173,175,175,176,176,179,179,180,180,182,182,184,184,186,186,190,190,191,191,192,192,193,193,196,196,197,197,198,198,201,201,202,202,203,203,204,204,205,205,206,206,208,208,209,209,210,210,211,211,212,212,213,213,214,214,215,215,216,216,217,217,218,218,219,219,220,220,221,221,222,222,223,223,224,224,225,225,226,226,231,231,232,232,233,233,234,234,236,236,237,237,238,238,239,239,240,240,241,241,242,242,243,243,244,244,245,245,246,246,247,247,248,248,249,249,250,250,252,252,254,254,255,255,256,256,259,259,260,260,261,261,264,264,270,270,272,272,274,274,279,279,282,282,283,283,284,284,285,285,286,286,287,287,288,288,289,289,290,290,293,293,295,295,296,296,297,297,298,298,299,299,303,303,304,304,305,305,306,306,308,308,312,312,313,313,314,314,315,315,316,316,318,318,320,320,321,321,322,322,323,323,324,324,325,325,327,327,328,328,329,329,330,330,331,331,332,332,333,333,334,334,335,335,336,336,338,338,339,339,340,340,341,341,342,342,343,343,344,344,347,347,348,348,349,349,350,350,351,351,352,352,353,353,355,355,356,356,357,357,358,358,360,360,362,362,364,364,365,365,368,368,369,369,370,370,371,371,372,372,373,373,374,374,377,377,378,378,380,380,381,381,382,382,383,383,385,385,386,386,388,388,389,389,390,390,392,392,393,393,394,394,396,396,401,401,409,409,410,410,412,412,415,415,416,416,418,418,419,419,420,420,422,422,423,423,424,424,425,425,428,428,429,429,431,431,432,432,434,434,435,435,436,436,437,437,446,446,450,450,452,452,453,453,454,454,455,455,456,456],"right_children":[2,4,6,8,10,12,14,16,18,20,22,24,26,28,30,32,34,36,38,40,42,44,46,48,50,52,54,56,58,60,62,64,66,68,70,72,74,76,78,80,82,84,86,-1,-1,-1,88,90,92,94,96,98,100,-1,-1,102,104,106,108,110,112,114,116,-1,118,120,122,124,126,128,130,132,134,136,138,140,142,144,146,148,150,152,154,-1,-1,-1,156,-1,-1,158,160,162,164,166,168,-1,170,-1,-1,-1,172,174,176,178,180,182,184,-1,186,188,190,192,194,196,198,200,202,204,206,-1,208,210,212,214,-1,216,218,-1,-1,220,222,224,226,-1,228,230,-1,232,234,236,238,240,242,244,246,248,250,-1,-1,-1,-1,252,-1,-1,254,-1,256,-1,258,-1,260,-1,-1,262,-1,264,266,268,270,272,274,-1,276,278,-1,280,282,-1,-1,284,286,-1,288,-1,290,-1,292,-1,-1,-1,294,296,298,300,-1,-1,302,304,306,-1,-1,308,310,312,314,316,318,-1,320,322,324,326,328,330,332,334,336,338,340,342,344,346,348,350,352,354,356,-1,-1,-1,-1,358,360,362,364,-1,366,368,370,372,374,376,378,380,382,384,386,388,390,392,394,-1,396,-1,398,400,402,-1,-1,404,406,408,-1,-1,410,-1,-1,-1,-1,-1,412,-1,414,-1,416,-1,-1,-1,-1,418,-1,-1,420,422,424,426,428,430,432,434,436,-1,-1,438,-1,440,442,444,446,448,-1,-1,-1,450,452,454,456,-1,458,-1,-1,-1,460,462,464,466,468,-1,470,-1,472,474,476,478,480,482,-1,484,486,488,490,492,494,496,498,500,502,-1,504,506,508,510,512,514,516,-1,-1,518,520,522,524,526,528,530,-1,532,534,536,538,-1,540,-1,542,-1,544,546,-1,-1,548,550,552,554,556,558,560,-1,-1,562,564,-1,566,568,570,572,-1,574,576,-1,578,580,582,-1,584,586,588,-1,590,-1,-1,-1,-1,592,-1,-1,-1,-1,-1,-1,-1,594,596,-1,598,-1,-1,600,602,-1,604,606,608,-1,610,612,614,616,-1,-1,618,620,-1,622,624,-1,626,628,630,632,-1,-1,-1,-1,-1,-1,-1,-1,634,-1,-1,-1,636,-1,638,640,642,644,646,-1,-1,-1,-1,-1,-1,-1,-1,-1,-1,-1,-1,-1,-1,-1,-1,-1,-1,-1,-1,-1,-1,-1,-1,-1,-1,-1,-1,-1,-1,-1,-1,-1,-1,-1,-1,-1,-1,-1,-1,-1,-1,-1,-1,-1,-1,-1,-1,-1,-1,-1,-1,-1,-1,-1,-1,-1,-1,-1,-1,-1,-1,-1,-1,-1,-1,-1,-1,-1,-1,-1,-1,-1,-1,-1,-1,-1,-1,-1,-1,-1,-1,-1,-1,-1,-1,-1,-1,-1,-1,-1,-1,-1,-1,-1,-1,-1,-1,-1,-1,-1,-1,-1,-1,-1,-1,-1,-1,-1,-1,-1,-1,-1,-1,-1,-1,-1,-1,-1,-1,-1,-1,-1,-1,-1,-1,-1,-1,-1,-1,-1,-1,-1,-1,-1,-1,-1,-1,-1,-1,-1,-1,-1,-1,-1,-1,-1,-1,-1,-1,-1,-1,-1,-1,-1,-1,-1,-1,-1,-1,-1,-1,-1,-1,-1,-1,-1,-1,-1,-1,-1,-1,-1,-1,-1,-1,-1,-1,-1,-1,-1,-1,-1,-1,-1,-1,-1,-1,-1,-1],"split_conditions":[2.7740797E-1,1.341608E0,-6.0366863E-1,-4.334254E-1,2.00001E0,2.5622296E0,1.369045E0,-9.264084E-1,-8.047764E-1,1.5047345E-1,2.00001E0,2.00001E0,2.00001E0,5.554432E-1,2.2009425E-1,-8.650028E-1,2.00001E0,-1.1174977E0,2.00001E0,2.00001E0,2.00001E0,1.5047345E-1,-4.334254E-1,2.00001E0,1.369045E0,-1.3683535E0,-1.8977596E0,2.00001E0,2.00001E0,2.00001E0,2.5622296E0,2.00001E0,-1.8214977E0,-8.650028E-1,2.00001E0,-1.1322712E0,2.00001E0,7.811366E-2,1.5047345E-1,1.6848111E0,2.00001E0,2.4281964E0,2.00001E0,-1.2842607E0,1.0988369E-1,-3.466581E0,1.4853103E0,2.00001E0,2.00001E0,2.00001E0,-1.962888E0,2.00001E0,2.00001E0,-9.3580383E-1,2.2901256E0,2.00001E0,2.00001E0,1.237619E0,3.027949E-1,2.00001E0,2.5622296E0,2.00001E0,8.866602E-1,1.0857663E0,2.00001E0,2.00001E0,-1.3214257E0,-9.9193734E-1,2.00001E0,2.00001E0,-1.9476321E-1,2.00001E0,2.00001E0,-9.264084E-1,-1.7955634E-1,2.00001E0,2.00001E0,2.00001E0,2.00001E0,1.3836988E0,1.8927072E0,2.630665E0,2.00001E0,-5.008391E-1,-1.211954E0,3.1533253E-1,2.00001E0,-8.122964E-1,-2.382852E0,2.00001E0,3.027949E-1,-1.1029208E0,1.369045E0,1.0390152E0,3.027949E-1,3.146388E0,2.00001E0,2.58263E0,5.1676874E0,-3.2710075E-2,2.00001E0,3.8891652E-1,2.00001E0,1.0390152E0,2.00001E0,5.8995867E-1,2.00001E0,5.974617E-1,6.243593E-1,2.00001E0,2.00001E0,2.00001E0,3.0699677E0,2.00001E0,1.1645217E0,2.00001E0,1.9711663E0,-1.8711802E0,-1.4624552E0,1.3346358E-1,2.00001E0,2.00001E0,2.00001E0,2.00001E0,-2.084936E0,2.00001E0,3.6878115E-1,-2.0992043E0,-3.236738E0,-8.650028E-1,2.00001E0,2.00001E0,2.00001E0,7.1445084E0,2.00001E0,2.00001E0,-1.5153809E-1,2.00001E0,2.00001E0,2.00001E0,2.00001E0,2.00001E0,2.00001E0,9.550024E-1,2.00001E0,-8.019149E-3,2.00001E0,-5.3543496E-1,1.3364926E-1,-1.2521431E0,-8.02412E-2,2.00001E0,-8.694971E-1,-1.7832069E-1,1.6848111E0,-5.5733824E-1,2.00001E0,2.008108E0,-8.4421086E-1,1.5582293E0,-1.0126232E0,4.8744455E-2,1.3437347E-1,-6.2877226E-1,3.5044236E0,2.00001E0,-1.3419217E0,2.00001E0,2.00001E0,2.00001E0,2.00001E0,1.0271666E0,2.00001E0,-5.00647E-1,2.3746236E-1,2.00001E0,2.00001E0,2.382286E0,5.614306E-1,4.0434253E-1,2.00001E0,-2.150055E0,4.0434253E-1,8.4321386E-1,1.341608E0,-3.2122764E-1,1.115176E0,1.3676982E0,-3.968689E-1,2.9495105E-1,4.339313E0,2.00001E0,2.00001E0,2.714551E0,3.0795228E0,-1.2922882E0,2.7523696E-1,1.6736878E0,2.00001E0,1.1565365E0,2.4846961E0,2.00001E0,2.6383903E0,2.00001E0,2.00001E0,2.00001E0,-1.4416475E0,8.6118124E-2,2.00001E0,2.00001E0,2.00001E0,-5.6035995E-1,2.00001E0,-1.0680981E0,-8.7424994E-1,8.026426E-1,2.00001E0,2.00001E0,2.00001E0,2.00001E0,2.00001E0,2.00001E0,2.00001E0,-1.7955634E-1,-1.2172891E0,2.00001E0,2.00001E0,8.6118124E-2,8.8007784E-1,-1.5153809E-1,-9.150192E-1,2.00001E0,2.00001E0,2.00001E0,2.00001E0,1.48212435E-2,-7.103236E-2,2.00001E0,2.00001E0,2.00001E0,2.00001E0,-1.7955634E-1,3.154093E-1,2.00001E0,2.00001E0,2.00001E0,2.00001E0,2.00001E0,7.643231E-1,2.00001E0,2.00001E0,-1.615836E0,-4.334254E-1,-1.5972106E0,2.00001E0,1.4853103E0,1.6848111E0,9.850179E-1,2.0494615E-1,-1.4057876E0,-8.1584424E-1,-1.4860175E0,6.1681724E0,5.737478E-1,2.00001E0,7.3583275E-1,-2.4533413E-1,-2.9413185E-1,1.1958137E0,9.382958E-1,2.00001E0,2.5381606E0,-7.3176104E-1,3.869419E-1,2.00001E0,1.045637E0,3.6130826E0,-1.7530365E-1,-3.2710075E-2,1.8328325E-1,1.5581617E0,-1.0400696E-1,2.00001E0,2.00001E0,2.00001E0,2.00001E0,-3.572563E-1,2.00001E0,2.00001E0,6.582116E-1,7.851461E-1,-2.5071437E0,-4.1296005E-1,2.5622296E0,6.327276E-1,-2.2727823E-1,2.00001E0,2.00001E0,2.00001E0,4.3113045E-3,3.4545842E-1,1.48212435E-2,-2.2283517E-1,2.00001E0,2.00001E0,2.00001E0,2.00001E0,5.535063E-1,9.550024E-1,-1.0400696E-1,-4.1664886E-1,2.0631409E-1,-1.1188719E0,-1.5167124E0,-1.6590538E0,2.00001E0,2.00001E0,-1.4793682E0,-1.1590801E0,6.973601E-1,-2.0735998E0,-5.6035995E-1,2.00001E0,2.00001E0,2.00001E0,-1.1322712E0,-1.5203562E-1,2.00001E0,-1.1322712E0,2.00001E0,-5.8233625E-1,2.00001E0,-1.6012231E0,2.00001E0,8.6642647E-1,9.377365E-1,-6.163106E-1,8.947523E-1,2.00001E0,-7.1268135E-1,-4.8419923E-1,-7.5793046E-1,2.00001E0,-8.7424994E-1,-2.745996E-1,-2.920563E-1,8.17215E-2,3.0688292E-1,2.00001E0,-1.3047992E0,-1.5379956E0,2.00001E0,-1.1590801E0,-1.5167124E0,-1.6361581E-1,2.00001E0,2.00001E0,-1.0447775E0,-8.9417213E-1,-3.4166318E-1,2.00001E0,4.9882206E-1,2.00001E0,8.186488E-1,2.00001E0,2.00001E0,-2.2283517E-1,1.0940365E0,-5.00647E-1,2.00001E0,-5.701042E-1,2.00001E0,2.00001E0,-1.7955634E-1,2.00001E0,-6.969821E-1,-3.4422262E0,1.8328325E-1,2.00001E0,1.0256456E0,-1.7955634E-1,2.00001E0,2.00001E0,-1.7955634E-1,-6.078393E-1,2.3629436E-1,2.00001E0,-1.0400696E-1,2.00001E0,1.06463864E-1,2.00001E0,-1.724871E0,4.1565016E-2,2.00001E0,-4.7158502E-2,-1.0897348E0,1.3836988E0,-6.588177E-1,-2.3412344E0,-3.7449774E-1,-7.5899124E-2,2.00001E0,-2.9527417E-1,-5.793194E-1,-2.6469288E0,9.694438E-1,-1.1496943E0,3.3488922E0,2.2733943E0,2.00001E0,2.00001E0,5.614306E-1,2.00001E0,1.6263136E0,1.8118058E-1,-9.99768E-1,2.00001E0,1.4804764E0,3.154093E-1,-7.87061E-2,2.0674719E-1,-3.178974E-1,2.00001E0,-4.7158502E-2,2.00001E0,-5.4980487E-1,-2.9413185E-1,-2.6533327E0,3.027949E-1,7.8499955E-1,1.1921892E0,6.352469E-1,2.00001E0,3.8587E-2,2.00001E0,5.3127706E-1,1.2928842E0,1.5975271E0,3.5803196E0,-2.2191474E0,6.2352564E-2,7.1266687E-1,-3.2710075E-2,-4.604914E-1,4.715166E-1,1.5598384E0,2.00001E0,2.1897202E0,1.1009783E0,2.4652855E0,5.6678987E-1,-3.7244123E-1,3.3628255E-1,1.341608E0,2.00001E0,1.5499305E0,2.00001E0,3.086296E-1,1.1045482E0,6.4069115E-2,-4.4983235E-1,3.4488298E-2,1.344883E-1,-1.3562417E0,-7.4904954E-1,-1.2668685E0,3.8130444E-2,-2.2137871E-1,4.2435572E-1,-2.1032123E-1,-5.133472E-1,8.743436E-1,1.7103817E0,-3.594101E-1,-1.794101E-1,-1.2777252E-1,2.587363E-1,8.448512E-1,4.7183815E-2,1.8807887E-1,8.2401925E-1,-1.1400943E0,-3.5760698E-1,-1.0396116E0,-1.8357036E-1,-1.7726827E-2,6.188643E-1,-1.2056046E-1,-6.2797785E-1,-2.3624325E-1,1.48212435E-2,3.6202976E-1,-4.273017E-1,3.6205494E-1,-1.0409483E0,2.0531343E-1,-5.0532695E-2,-5.5021733E-1,5.3466797E-2,1.3993047E-1,3.0316392E-1,3.2981683E-2,4.8231092E-1,-2.6060933E-2,-4.734908E-1,-2.863553E-1,2.3179965E-1,-8.5109246E-1,-1.5872676E0,-1.9933091E-1,-7.4813193E-1,-1.4919244E-1,-1.2638792E0,-4.3446407E-1,3.5208315E-1,-8.1099415E-1,-1.0455481E-1,-8.02412E-2,3.4368974E-1,-8.3660233E-1,-1.6085892E0,-8.0600053E-1,7.9566E-2,5.800919E-1,5.7204332E-2,2.0494615E-1,1.0879556E0,1.7516607E-1,5.37665E-1,-8.944511E-3,-5.647564E-2,3.6878183E-1,1.276599E0,3.8357252E-1,1.3783904E0,-4.3222275E-1,-8.02412E-2,3.7784696E-1,-1.5203562E-1,1.6190414E-1,6.823773E-1,5.748269E-1,1.3357601E0,-2.8365073E-1,3.5488355E-1,-5.1009345E-1,-1.4095377E0,-1.8303782E-1,4.1927797E-1,-7.614543E-2,2.1482094E-1,-3.8736627E-1,-8.7403126E-2,3.8513185E-3,-3.9689904E-1,-1.1065758E0,-6.6233927E-1,-2.0986488E0,-5.999001E-1,9.814539E-1,-2.8485832E-1,-1.6220601E-2,-3.7442E-1,-1.1722819E-2,-1.314545E0,4.3750606E-3,-1.159738E0,-1.4991534E0,-2.2283517E-1,6.2352564E-2,-7.132018E-1,2.9946992E-1,-3.4889728E-1,-1.17295645E-1,2.2188823E-1,-1.4050663E0,-2.9004931E0,1.0974834E0,7.3997384E-1,3.6812884E-1,6.262216E-1,-1.363154E-1,2.7430457E-1,-2.2751318E-1,-7.936587E-2,-2.3548077E-1,6.491068E-1,4.5233312E-1,8.403605E-2,-1.03231624E-1,1.7395554E-1,1.3364926E-1,-1.284682E-1,1.8118058E-1,8.646122E-1,6.2203E-1,1.6639149E0,5.37665E-1,-4.6654844E-1,9.445898E-1,2.5247747E-1,9.376176E-1,1.7195076E0,1.2608376E-1,-3.8276196E-1,-3.3295949E-3,6.809751E-1,1.1072973E0,3.7682852E-1,-8.02412E-2,9.861992E-1,-9.858015E-1,-1.2777252E-1,-6.221301E-1,4.4132096E-1,1.1796736E0,3.0976257E-1,3.950543E-1,-7.543799E-1,3.7206727E-1,9.483576E-2,2.0519124E-1,1.0499369E0,-1.0783976E0,7.994164E-2,-6.615593E-1,-1.5345142E0,-8.0002445E-1,-1.58789E-1,-1.0733951E0,-2.830695E-1,2.9168925E0,1.6169968E0,4.3770996E-1,1.1567749E0,1.1257738E0,7.626834E-1,1.1423677E-1,9.421223E-1,1.0988369E-1,4.1883698E-1,-4.0679762E-1,3.3245564E-2,8.6118124E-2,-4.1296005E-1,-1.7530365E-1,8.340335E-1],"split_indices":[1,0,0,1,48,1,1,0,0,1,46,46,48,0,0,1,48,0,4,46,4,1,1,3,1,0,0,50,48,46,1,21,0,1,31,0,20,0,1,0,22,0,27,0,0,0,0,50,17,48,0,41,3,0,0,17,16,0,1,3,1,31,0,0,43,4,0,1,2,32,0,42,33,0,1,31,48,48,50,0,0,0,14,0,0,0,49,0,0,48,1,0,1,1,1,0,50,0,0,0,23,0,46,1,48,0,26,0,0,50,31,19,1,13,0,2,0,0,0,0,44,4,4,44,0,42,0,0,0,1,14,4,17,0,17,48,0,4,48,40,41,42,33,0,46,0,17,0,0,0,0,42,0,0,0,0,44,0,0,0,0,0,0,0,0,36,0,2,39,49,5,0,2,0,0,33,19,0,0,1,49,0,1,0,0,0,1,0,0,0,1,39,31,1,0,0,0,1,42,0,0,49,1,32,49,32,0,0,32,33,46,1,20,1,0,0,32,27,14,22,3,49,2,1,0,48,44,0,0,0,0,36,17,46,41,0,0,40,50,40,31,1,0,27,42,50,22,20,0,33,44,0,1,0,41,0,0,0,0,0,0,0,0,0,22,0,0,0,0,0,33,0,0,0,19,0,0,0,0,0,0,0,33,26,46,3,0,49,34,1,1,0,0,1,0,0,48,22,44,0,0,0,0,16,3,49,3,0,0,0,0,0,1,0,0,26,44,0,0,0,0,1,49,50,26,0,0,31,0,3,0,17,1,36,0,0,0,0,14,1,1,0,17,0,0,0,0,0,50,0,0,33,0,0,0,4,20,0,0,0,33,0,42,0,36,49,0,0,0,36,0,50,49,1,41,0,0,0,49,0,1,32,34,1,0,0,20,0,40,0,33,0,0,31,0,0,0,0,0,0,0,36,0,0,0,0,0,0,0,33,40,0,20,0,0,0,31,0,0,0,0,0,18,0,39,0,0,0,1,0,0,0,3,0,36,1,1,1,0,0,0,0,0,0,0,0,33,0,0,0,0,0,0,0,33,0,36,0,0,0,0,0,0,0,0,0,0,0,0,0,0,0,0,0,0,0,0,0,0,0,0,0,0,0,0,0,0,0,0,0,0,0,0,0,0,0,0,0,0,0,0,0,0,0,0,0,0,0,0,0,0,0,0,0,0,0,0,0,